105 32
lower -0.008880146344986298 -0.027778908975150562 0.009235709752437657 -0.02117652274434528 -0.009836063369454312 0.012111329879919282 0.028834858574346558 -0.022746134935707204 -0.00398445997060633 -0.02914862822900178 -0.004442462677426158 0.0008297687323944758 -0.036809643740200404 -0.02386053758838965 -0.016869104086630168 0.04355808203357354 0.0065239328643418686 -0.013081374164542815 -0.04161811123408146 -0.03699330455236682 0.003407166175277355 0.022736329931251367 -0.015894810399070605 -0.0017039422245366627 0.018227366270280723 0.007571950183771397 0.03306727809979629 -0.0024008237154916554 0.010120439309673072 0.00459935130718052 -0.025126785379487548 0.00469453027407747
upper -0.016487459410269596 -0.0018064190379758639 -0.010236679490123272 -0.0033771869799355154 0.00916552831584707 0.004341862862633054 -0.00697161572454477 -0.015999976790683813 -0.0019921872996904785 -0.0022958110989997477 -0.013637455286058652 0.008061955775813702 -0.01203097141850601 0.012044556469950334 -0.010560750689160861 0.0040619867638855365 0.020233925088429906 0.004273839390478272 0.0043687359863532425 0.005200769860264826 -0.0031079641181878483 -0.01657442053787336 0.0019397185284572944 -0.013889979605231964 -0.007522700514064345 -0.001781281279898357 -0.010792237632491233 0.008855746113578195 0.007000138164230788 -0.0010719278124648596 0.011914302066910765 -0.005704716491892591
punc 0.14118501697775068 0.21733628700029725 -0.015011143823312064 0.06105169030580828 -0.09285189661460387 -0.05602733941683968 -0.18425609638976045 0.1301470849239503 0.2058861069423474 0.16283634198226002 0.13752323707468786 -0.09844489879568719 0.49529791732184236 -0.02909344307235455 0.06280592839907419 -0.3351138676752155 -0.007425204179628289 0.10803346520368032 0.05774875281449201 -0.14278485704086807 -0.2899207014457548 -0.28150099731603395 0.0445567838578716 -0.031244131323924878 0.0713002735350297 0.023959275113398643 -0.10227466407789025 -0.0006385584586854422 -0.02790828506036438 -0.057463553851992595 -0.053384935215502666 -0.06674681573255842
yumuşak_ünsüz 0.09809975796810634 -0.032667303621766446 0.0457229723704201 -0.042948148389910054 0.018354015922023244 0.00773829519983074 0.09382421847419868 -9.98990244339261e-05 -0.02829803819150243 -0.02663734072588964 0.08755582651993336 0.056727192247582124 -0.0484582573370661 0.014975694578222358 -0.024442086369352772 0.0036918642803091518 -0.06270114963603082 -0.06408037324489062 0.015051215530599077 0.023032306424308997 0.038804086508096566 0.0580120172774082 -0.0178113954626846 0.01296038383766555 0.005423184968361803 -0.01068653864011132 0.04750732073077604 -0.025800932780810828 -0.07842481675839927 -0.029063691113145655 0.07330678348914253 -0.012956996959061511
sürekli_ünsüz 0.0030635701659432533 -0.09341859105118827 -0.05172582384568191 -0.06004345712969768 -0.04947503770864467 0.07240715388996523 0.06548313797157268 -0.012905083902442964 -0.03210681124721542 -0.04354438126661866 0.06691429302675894 0.028811666335476903 -0.07419428377223004 -0.01676829944349661 -0.038137984782501466 0.06971318291554245 -0.010870683036916039 -0.012123995146322638 -0.006275957869461164 -0.02028989757468869 -0.0076792176063840084 0.020500651571814157 -0.011090480058584568 0.04333986605190729 0.03700102772927857 -0.0038286881526111345 0.03854405250595019 -0.025569392194227422 -0.0671162883256638 -0.0351290624692993 0.11536073436624085 -0.008000111543739308
teeth 0.026966927573667036 -0.16449007063053447 -0.019540378181595586 -0.05974029968929626 -0.06067271085714802 0.039811593902185916 0.07998670744773732 -0.023750742452077325 -0.024453641605646167 -0.030605401207498863 0.06455212506302134 8.873055158680528e-06 -0.07428951650611545 -0.02629176244440914 -0.05063438357669254 0.09404563410591806 -0.018056462882090694 0.0037811489303043455 -0.03461957976349683 -0.0599227623655671 -0.007085178387539572 0.12064389272979281 -0.020843606919767176 0.09228125603575767 0.05332288954673354 -0.01660335125777418 0.08644468804630577 -0.029134825947826792 -0.025371973661232172 -0.01610098651796813 -0.021762189825034663 -0.0256898588890409
sert_ünsüz -0.04470664111689474 -0.055069238355022476 -0.0872786455574918 -0.057769728602047044 -0.08117198506862668 0.01510511246942613 0.0727965298507159 -0.06766421697921014 0.020971703915107557 -0.1133552135319453 -0.037268685999382364 -0.008814610557263227 -0.09076337393478615 -0.1582098708119383 -0.05193304452834505 0.14490895633752912 0.06916586504279151 -0.00021846768173874095 -0.12118678749661548 -0.13768686195218519 -0.06569439154025536 -0.04566497775743219 -0.035388669960549145 0.0065698569299227705 0.05644080849469021 0.021726357379891925 0.0949831713974209 -0.025588643659474462 0.06904854825915781 0.05735674576044954 -0.02533217133753391 -0.019946204271188588
digit 0.048367910265611005 0.17743733030860348 -0.2101664091562469 0.21343743049478905 0.14260100765069203 -0.2507088637812941 -0.04103128235252438 0.17416602739936013 -0.01806672456296302 0.050447423581700714 0.019314230722801234 -0.16703276992585905 0.12575966709232358 -0.11709289664648559 0.3490068783034376 -0.06346756225603654 -0.1289852614527281 0.05045954107348049 0.21764078449526428 0.209435778797549 -0.12222798968897278 0.0010717400383998324 0.23871764870877227 0.3523176365403873 -0.177815884489662 -0.10343315953766354 -0.0660900530764885 -0.06316898293082936 0.07527079644550311 0.09333725501637409 0.005061585396041553 -0.199530491643071
süreksiz_ünsüz 0.08213188162566691 0.013811469954595871 0.10402154968840716 -0.029761474234153224 0.04718321389701082 -0.08513735644140272 0.13192321595238518 -0.045409235438668524 0.02916114603411229 -0.10014009269138929 -0.0008050077377454798 0.03521461747522986 -0.05592105182478859 -0.09901717989621833 -0.032543172084930565 0.037894105791008846 -0.00806528823414636 -0.08774821082166614 -0.09754456419832666 -0.07898840823233731 0.01277439619014297 0.03675148884793265 -0.041135009234343115 -0.0422388553925806 -0.00014756549801969547 0.01775831140508402 0.12094200402686497 0.010815879167690888 0.04780687578574767 0.05185930048637546 -0.11567681030043499 -0.029915406809164213
s -0.11820364541191268 -0.23970827767182937 -0.24839146730809522 -0.08269886143727995 -0.21780642221661733 0.04846714377616081 0.13595481539158707 -0.11688812205368365 -0.015685092013992895 -0.17979994370609723 -0.05446178997337554 -0.018004138013981225 -0.20863260952387552 -0.2664939064087769 -0.13612900749106896 0.29286426955440487 0.20859036492927446 0.16954196049723433 -0.17472570315273606 -0.2952102904310928 -0.16455008063172555 -0.030046885014210795 -0.11705968674375392 0.0723165063220721 0.10357836320406523 -0.03594877329083387 0.2043907613675677 -0.07577282647490646 0.21397053306578048 0.08210434484767991 -0.05032485223195389 -0.02236350990263448
ünlü -0.15137430937057578 0.07679922226466822 0.016212583284271186 0.129437564015922 0.03695196914379325 0.021653788943684815 -0.19407253547491096 0.03877464902918245 -0.028768267805075513 0.14911320481102214 -0.13667936008847972 -0.08085636593513156 0.07088762461280981 0.15218944356732395 0.03510064189124474 -0.09348445195613168 0.04431787680908246 0.12037276299070698 0.061530248355378875 0.11397971963220217 0.08022628166458473 0.014304889828044965 0.034142295996535385 -0.05616468796758238 -0.056422266488078916 0.011297584652599656 -0.1612662180853382 0.05176244260419736 0.08415780362702939 -0.015379451655509378 -0.09473066513129665 0.08915851938511649
lips -0.05444284800782693 0.12558909068376278 0.07864734786950511 -0.10385487552580396 0.08601548872397667 0.05021367030276057 0.16431314280936982 0.01744891326043692 0.01205558085486489 -0.1588361825080058 -0.0022406163446822753 0.024871629099653222 -0.09810742823612692 -0.1439936617582928 -0.02383461618080375 0.07027364785169846 -0.025207565649064814 -0.16191874235040235 -0.08008334197695487 0.015496407337718393 -0.041937531733475725 -0.16827449314011816 0.046884469919103416 -0.08948930288930558 -0.01013133791355015 0.11397870951995127 -0.017652606051056195 0.02313258117541031 -0.13213564861642357 -0.06535962780876121 0.18966937612852025 -0.008836544174333244
a -0.4236068053373877 0.08732441364458733 -0.01601492626344328 0.17756226365960004 0.03556400779549584 0.14174051043071245 -0.3227083923112694 0.1258477763996563 -0.09475464124467498 0.2251522260651843 -0.14749183522079592 -0.15216848501288674 0.19239936472024058 0.2419665166905785 -0.005077350094316266 -0.0472291798230603 0.0916375983049426 0.16112953568583016 0.09577235426846696 0.09152296704009584 0.22257563104532466 0.016085117490988045 0.04282528344260008 -0.08278819933236145 -0.10641197825059634 0.04633770555170841 -0.24594950557720568 0.06969061455050608 0.07117255217878651 -0.10335832728693783 -0.0927012247599714 0.31962307511618304
b 0.024077888120818076 0.17863258750890823 0.2707914510255972 -0.13196008874152237 0.277728217064397 -0.11825463022548559 0.3303609248524204 -0.029535512373052054 0.13959639615499023 -0.12798784588483303 0.04229297119816039 -0.010410583803139188 -0.13972420051144113 -0.2137277182779466 -0.15311418443870162 -0.021738861601602832 -0.12061430480507157 -0.29921706032852474 -0.15415082807385527 0.05055590613142922 0.03916417782097479 -0.17824074705064613 0.0003801724580156253 -0.19252636574001208 -0.026127902280423804 0.25898221453527837 0.009885411455564631 0.08530503187138963 -0.19771611881503465 -0.12362453389483719 0.167395042746242 -0.1275489612826064
c 0.03881074773652376 -0.12759351127391214 0.28984818822321645 -0.15797153104989253 0.0018091674271441148 -0.08590023999011967 0.1696508260504048 0.06857916038315169 -0.10419675745384588 -0.13796463718535382 0.025609934764102428 0.1736396201059283 -0.026478417148131855 0.005136836224843902 -0.14788773054123977 0.21946694752654067 -0.05551081178394344 -0.20791338142096757 -0.06105599398577039 -0.13551713506069382 0.13813990716357125 0.36053419943924603 0.09412970080977724 0.10951203383296575 0.020873429590214564 0.03868408130026718 0.19622791628325956 0.10009711313378626 0.03188273238834667 -0.0457152711951111 -0.38456489901797425 -0.045915638685703114
d 0.25104938581293024 -0.14432197221976634 0.3774540619797299 -0.014889998723120752 0.20651742654353777 -0.01579581327384058 0.4250096814630133 0.018012174592683394 -0.056992204105451805 -0.1455462849705807 0.062976044346843 -0.05097176047319794 -0.17060094385704633 -0.14710287613643708 -0.06157591144985445 0.02708695560996425 -0.04939022267011642 -0.010019586436265994 -0.08464477947629544 -0.15196080378590013 0.018345021667556843 0.28055773002419676 -0.16333071500614993 0.011746033276250959 -0.1262167908813872 -0.0662475778328674 0.2757402264637199 0.037775288409743236 0.034544172582999605 0.041567423659291385 -0.2673647444028744 -0.034911393478599034
e -0.3658944049217118 0.13704165780447228 0.09243987879144373 0.2512026587953142 -0.023246469424761516 0.027719524428292678 -0.3584805948090952 0.11841966541000011 -0.04882938552578257 0.20211965182964975 -0.1814218824313796 -0.2049981994339693 0.15371992150692235 0.10837585518586759 0.13760999193677242 -0.06520898076195417 0.07382548248099942 0.20017166807463202 0.10390099563327769 0.11252110622743251 0.22977063352188123 0.007495403870176396 0.008525405187272453 -0.07673922796681842 -0.12636925105846877 0.04720486265181748 -0.16381469540012283 0.13088019656907782 0.11331363655466846 0.06887202680534903 -0.13600210227788748 0.34140097187052737
f -0.2963359545661202 0.05871855743853018 0.014463934539107397 -0.18552110472485356 0.015318599013095261 0.17584516940507355 0.27396738879997495 0.038727618244648765 -0.04557217901776683 -0.2967301983638466 -0.06587380051794815 0.07860036305717279 -0.19573084810072253 -0.23439287508478682 -0.17164505174137742 0.2293647501114737 0.10134230626713228 -0.08747865491112017 -0.10366058855469004 -0.056127147094997984 0.008457568491927797 -0.27758259143815384 0.11912376449528207 -0.015479073348206406 -0.0987345543072428 0.1714518066055135 0.014007480547846486 0.1328740217863459 -0.106863115878613 -0.08202957073430571 0.27769889568239287 0.017303311095714924
g 0.2675674847833485 0.04640159565432329 0.0891912591991552 0.07718720647922231 0.14126234467493687 -0.19815573859343322 0.25993407123489354 -0.22442580239279972 0.016268737809537734 -0.08216717829646776 0.08823621189147794 0.294403232628596 -0.07369469271131661 0.061160415413426726 -0.11004175012353502 -0.1807042482423695 -0.003855432035901016 -0.11089555213327594 -0.14405447058134327 -0.05581717207061195 0.2794377724987468 0.0376449361121531 -0.24691578124353583 -0.1938364391688346 -0.137630452442212 -0.06925394795386054 0.2630947695135851 -0.19998448386215611 0.10782453438052839 0.09799167042946101 0.040558196150955066 -0.062153438455926024
ğ 0.40534374951608837 -0.07821712625043899 -0.14220310948041434 -0.041384457865692136 -0.08375896647304937 -0.05144512022194523 0.14920789422022507 -0.10822047282796621 -0.054136251433433494 -0.05517514844130101 0.2560333645933895 0.3814555662429129 -0.12213962489743195 0.08640853325758008 -0.07926262427693188 -0.0880032154839913 -0.08299529552114365 -0.10456319183353423 0.1858125636653645 0.03592665314256825 0.20257615449775665 0.01791586928579016 -0.10408701615755711 -0.12972116911453727 -0.04406412480651082 -0.135454915457474 0.2173785503748597 0.012961984147055934 -0.060231841552587685 0.18314496795570775 0.33945333200685035 -0.055956478576171614
h -0.09990198747819073 -0.18223400732418504 -0.43826750555667887 -0.1596930806251692 -0.26692802866348797 0.2324195508240466 -0.08853799530108389 -0.08609486991774679 -0.03486908542187531 -0.14410506220678881 -0.24676683818346756 0.1401004992410633 -0.07031703524262421 -0.153874617720612 -0.1722719428966702 0.2422274395638482 0.10736351341660548 -0.1807805424415904 0.012247560350553525 -0.16657873649025637 0.01719966673968534 -0.13449989062249493 0.0022122255669801295 0.03592785690148125 0.12930224880017652 -0.015565977894414695 0.046610961813473996 -0.2363182707950912 -0.017623403076518936 0.16514090888852387 0.16780086265299077 -0.15790612717661653
i -0.2016149674348163 0.09891569058813014 0.11756352048635178 0.28443436697897856 0.10575822690139522 0.10902815893341 -0.26660774886283073 0.14541909500521058 -0.1356682764359597 0.21232041654220338 -0.28353242921031163 -0.15714671306726616 0.07418764360251524 0.23326690576270606 0.20611236847516273 -0.2252467668206197 0.027093534930123047 0.1676389670829198 0.0457640407228567 0.15700600081628147 0.17911947417782928 0.07013127924102236 0.13163659949905732 -0.15810425992734645 -0.04308462594777714 0.06599482070388449 -0.23315948669315462 0.05630362871536358 0.15207279204381263 -0.07419288673282706 -0.17259222186022855 0.2163332195684151
ı -0.20609453664696492 0.16374461371117283 -0.007651119073599157 0.28227506167796335 0.11320279541798908 0.11547056867622273 -0.23213430152151734 -0.0022061932537016655 -0.10591329224030713 0.28823944261121637 -0.25827975789585833 -0.10189385352748549 0.0010131321051241498 0.27198461296586346 -0.029408848903189046 -0.21844237298212157 0.0970786839011032 0.24991673074235002 0.008438843673403635 0.17762154508059905 0.192815981432327 -0.007952844167311849 0.04837040706316425 -0.20418394302626483 -0.08468055670829884 0.05272240169971251 -0.2649019769384209 -0.005611077873686664 0.18703020420073607 -0.1303417783468473 -0.057127269116892865 0.0935268015278552
j -0.08512207695713572 -0.4781664027682069 -0.07399757647310615 -0.08825585118524254 0.020638289717669595 0.044295830733637825 0.21330732391611995 -0.017355435961442164 -0.13915705190687663 -0.04560110227367279 0.2129633008488367 0.06380780133652979 -0.30398169752269694 0.0340968279536466 -0.07973247495594656 0.058455873404706565 -0.15671880553117937 0.096084386700614 0.2558732594966861 0.08260749245630492 -0.06684229988609226 0.23809319419127137 0.12954661078199853 0.15528817482095741 -0.10534828762625399 -0.1772044000988363 0.061353436926230354 -0.06130042992467576 -0.12948897546564914 -0.0198050096493877 0.20588890413793973 -0.04155971764661875
k 0.2550209348603165 0.08418765519432922 -0.060176707219992555 0.023607416289540047 -0.06996325918318988 -0.25580300960483426 0.18387551749695663 -0.22474086925320638 0.02914921631795828 -0.23194333165569597 0.014647536191735951 0.22581240012324139 -0.17876309602985707 -0.18951364975919097 -0.060987989189272 0.025217974411809996 0.05569408456939456 -0.1644205747377386 -0.148146123397597 -0.17392445100692305 0.08407512331948308 -0.043451140576888876 -0.1202735473039541 -0.15300982449053202 0.012465267743314625 -0.06705195717580784 0.3078465150931248 0.0225286426780842 0.1630098883071577 0.3810738156934345 -0.052204620031993 -0.011411770998652553
l 0.045705496859114556 -0.29958497184615035 -0.07263649266405774 -0.2004288625520218 -0.16155722216892887 0.08574685467168089 0.19037838265393914 0.08606557329324872 0.0013839938741725343 0.0136229795321893 0.23184164770564253 0.14919378448588808 -0.03825839904942336 0.09182259385277589 -0.18315322451208954 0.18349941055435598 -0.1367572963492788 -0.1126414944728439 0.004038651706675267 0.16199622171117795 0.12573781680301904 0.22014625581227545 0.03772370768314864 0.34458321663283437 0.14482975421582986 0.08916968656162885 0.0814610591197752 -0.18682622635569018 -0.31116786120859435 -0.09519304574442561 0.07267158729122393 0.11268672072329146
m -0.02759257083165124 0.05474205553554507 0.1076184783608323 -0.08970427996178845 0.10522091770252369 0.1675699960322725 0.316301870738119 0.14801897657206048 -0.0631188855259777 -0.24328453493426028 0.07010382789240562 0.061942367786896234 -0.1558746805649932 -0.049211204803914915 -0.0975249167710661 0.13483283022342857 -0.08894000307767849 -0.2258961972121493 -0.01869186360318399 0.15696084270175026 -0.07466710373055606 -0.13480869870094667 0.0214828399350694 -0.19503192602459948 0.03633674282855935 0.023469222998874575 -0.05489330727324179 -0.02732628902602535 -0.3553139025192908 -0.20519976984685293 0.39820112264682705 0.04671486096819232
n 0.1662815850187294 -0.25986863228658086 -0.024961675660609355 -0.044076414388776845 -0.04504504738709741 0.1700616385750965 0.06314151593434601 -0.08781466613222363 -0.11304133216509592 0.04031027624792912 0.3725290757623067 -0.13044013028996948 -0.13167189531391296 0.12234391911401754 -0.07599033973970026 0.2386437424815125 -0.004122211091934183 0.1068209789175499 -0.050779710556659384 -0.07026139627050401 0.09073055644661242 0.29066268075187024 -0.15372831622908975 0.11133827866153831 0.17863798261386807 0.030653080028622673 0.12858716416737928 0.07328739555592767 -0.04655605008647346 -0.3021785460653107 0.17461280939624513 0.012649127657723046
o -0.26427216423794525 0.13046194711221476 0.047391289846586984 0.12213199766732832 0.09101555258984588 0.008116787648998926 -0.39588550191372246 -0.14392791842579217 0.07510553433870817 0.2191006483989265 -0.23127303179773612 -0.10827248205183639 0.1758197214386799 0.3181356243770529 0.01244621720688938 0.00794381016515016 0.17644251665550986 0.1929076123398136 0.005541727389410153 0.2287754752611943 -0.002707215370917755 -0.06464757815264989 0.004440320580907277 -0.051070945814599644 -0.12927624724018782 0.03764396150837548 -0.30912080474090586 0.049282133848036924 0.11557239967415327 -0.06515600305083437 -0.19784556984693402 0.08118913883462935
ö -0.28838660376990527 0.08982654484672854 0.1923244054987732 0.10430431179997168 0.08085261018134483 -0.06811480296885673 -0.37698482703835384 0.011305431336995993 -0.08077162380039211 0.2607841833066479 -0.20767985215134646 -0.09268220775249868 0.20679783522393283 0.23593648716453433 0.13176690304916552 0.006227163349471016 0.1727933574580315 0.19494551029859003 0.14898002175293873 0.10892769139076322 0.07428144561923682 0.04487396401549569 0.02671738409963722 0.03962949316762353 -0.16959260968982093 -0.09931698584726002 -0.306096638993784 0.1161978945591284 0.07721735432613609 0.11283940572311231 -0.16950843341558086 0.2355917681024214
p 0.0189384718346559 0.12804002542819606 0.18004723887454566 -0.08892624823055523 0.17521283522989792 -0.03767547044941123 0.19237581072504456 -0.11398653199848414 0.09925900779264309 -0.30236629227119044 -0.0443803707322403 -0.040649134592381196 -0.1668921619043477 -0.3440380678276822 0.08098592832253322 0.16116854296275376 0.05827075874234039 -0.2148645784877704 -0.2559683021896661 -0.18840857210084003 -0.26699610736695634 -0.1425163336571157 -0.046364724351535644 -0.1785935262429436 0.1655096418556604 0.1271070978998024 0.12861997508187364 -0.031419213718045534 0.13497793187472426 -0.021680193130615547 -0.08139738594778222 0.05058558494814763
r 0.09774210623844193 -0.5662166754372754 0.11873141071130132 -0.13797353610818605 0.021420227334966575 0.15900182102261973 0.15949392237214421 0.020162426145045168 -0.06102127701199731 -0.11259968871751119 0.13799958030134113 0.05429364728282283 -0.19041609633280857 0.07200339811098945 0.05167649809446498 -0.055148864353189254 -0.016227015999477495 -0.08694917922101006 0.04561912400667238 -0.10401053638420113 -0.16151110431925372 0.27660738725124046 -0.02188482698499625 0.08279227371415153 0.1888618404534919 -0.1853259354129988 0.1719593972217982 0.06387540367228663 -0.15812959328743673 -0.24141716671136998 0.031750320345866966 -0.1235642722503194
ş -0.17846639230737266 -0.22389851871431787 -0.23736655332344717 -0.054393217102317246 -0.2551701665581607 0.24938113400880133 0.07127336752791055 -0.1644383531876424 -0.06019249883236789 -0.00695428269683175 0.10677767198919644 -0.107827467544214 -0.17323158930933769 -0.12064742989788359 -0.11343433408361235 0.28739641629087526 0.04201502180777837 0.15837892969927048 -0.2833337033721017 -0.2659611582387013 -0.08308627083743768 0.1324318790150409 -0.10715983659741365 0.15528665247225934 0.15424348975787597 0.09876813996155977 0.10366167176023527 -0.12520028788588666 -0.0013481360581336724 0.01822587042737681 0.10517408104250257 0.004680818534067702
t -0.054542230244978604 -0.07700479991424335 0.07609054067922678 -0.07890293888185321 -0.01687246186672357 -0.08862017914578485 0.214579119794121 -0.20501909588072015 0.04836572946449053 -0.1285126313522154 -0.06004671844358799 -0.1481915336179172 -0.134518137459793 -0.20606949140201214 -0.05214591993848554 0.23763767387698437 0.0471032977941555 -0.026439109798088355 -0.4113100093237776 -0.3394317030330419 -0.023395979922262836 0.05601433896878344 0.02095649193887787 0.00464920348891745 0.07443039303689776 0.018272828466971695 0.2404199700305006 -0.03571460521805229 0.16489956238188114 0.08920526238034686 -0.45130867472024133 0.03176400507324954
u -0.12576573156184773 0.14018739491516058 0.002283029231619945 0.1423856338535437 0.06224106834613174 0.021828650254202532 -0.3250949518175942 0.020111869235076157 0.004069728568943322 0.26881145340888457 -0.3091844064535241 -0.02298273406484235 0.08409569976336759 0.3547617319232036 -0.028724830378546375 -0.2268904256709063 0.03945389348721766 0.17134697810302768 0.12942620520960613 0.2883122873647278 0.04013648635782595 0.026449363046539925 0.03944016272502211 -0.12791441009902926 -0.09068907052739035 -0.054921720218606855 -0.3559967685864679 0.08282550496610885 0.1434344512772732 -0.007324305303454469 -0.18922057577146226 -0.04189687620138913
ü -0.19320897535500298 0.03278821950995832 0.03643540526630456 0.17283617659408104 0.1380516499096051 -0.09290568472005678 -0.2644553488056059 0.041980529873680096 -0.08178352369697166 0.25253483777228675 -0.14326312926738283 -0.1337752977262374 0.06850780100550048 0.344143731693873 0.06594248170965934 -0.19526833922111464 0.06316475909716932 0.20735097595910285 0.20489775281794997 0.22691385594128333 0.05852467915439793 0.17831692854590586 0.11410370197610017 0.04470088500717111 -0.07959600287480105 -0.04245688216953904 -0.27008208872463385 0.15038739972980802 0.16381954157500342 0.03038384215494765 -0.2582806280344814 0.0544790880906752
v 0.03203418767911656 0.23235846232568852 0.12525295739238143 -0.1981758341196492 0.08529139726300561 0.12825536720893435 0.20483301571511556 -0.03464782725086779 -0.10442274835218049 -0.14461502595253944 0.12435639174106823 0.08884083675659299 -0.19329606907292962 -0.09443651022428488 0.1368201488162322 0.011969514942404367 -0.1507105849574135 -0.2569807052570885 -0.13386567344863037 0.054484870661558826 0.03653170144387385 -0.14978937498113168 0.09205036118944152 -0.0623625945677776 -0.08029128888179418 0.1287521964493516 -0.03570702496422834 -0.039205967509923466 -0.33340915215979056 -0.0634400951563863 0.4153593966113846 0.01644909909260869
y 0.2952381898124638 -0.004378261572904447 0.007374609129564398 -0.14197034426933958 -0.0030212985956219714 -0.04566585691017742 0.09840339674512041 -0.20097360081788374 -0.010486019286146335 -0.1405587174922814 0.16198916275325484 0.44148499047320355 -0.21528565726397741 0.14721417486150354 0.0780359052187379 -0.15747614653933167 -0.13499015080129806 -0.20755830658984092 0.04950095876035027 -0.05576835027164104 0.08110412280444869 -0.05689235473057214 -0.15645289871907656 -0.1744685574567631 0.05385143683974124 -0.16370151066066113 0.19612234341621956 -0.03631997170660134 -0.0871200870891939 0.10571759234878844 0.2592246267929659 -0.011455817162782489
z 0.258086704461384 -0.1964010184115702 0.004424251907253355 -0.06440646394459612 -0.12147501245799795 0.18535173718182998 0.09902366418959647 -0.06464422091294161 -0.21877878497703104 0.059607519360849924 0.18753729916961467 0.030746270611673954 -0.12933338729104912 0.0815637219888991 -0.1829191097511629 0.17224219777518399 -0.07901589421622204 -0.04016340687613366 0.04196881841052582 0.012396891877874816 0.1620290491269663 0.34366857712927495 -0.14806977795130707 0.28262182971391114 0.16949336971283563 -0.06761900216897436 0.0904653514049871 -0.27866139801756734 -0.10670974388792077 -0.08438787743838978 0.2039796264144191 0.07560595684409115
kalın_ünlü -0.17902387224772223 0.10543016880332814 -0.005440831936355433 0.1339046718950028 0.05679332240640619 0.05163904886127329 -0.24199315460908136 -0.006880970118838796 -0.01026486445950668 0.19186031704170858 -0.1862825139648549 -0.0681155544427729 0.0847285684327675 0.2284474444616555 -0.018427184496041978 -0.09936717705772469 0.07400720990149282 0.14697237014022843 0.04219853608704419 0.16054968963915492 0.0729205437508926 -0.014263220699711181 0.024539759205922978 -0.09134903900867981 -0.07581906625351673 0.015839418852480865 -0.23037399035042708 0.03394367946388484 0.09994215037600594 -0.062100720700214856 -0.10285756002596912 0.05980129106175385
ince_ünlü -0.18515528782622076 0.06729925577680482 0.08787539828110659 0.1538800076261522 0.05689479759545708 -0.015387651995355935 -0.2354836826633781 0.06790057403508673 -0.06493564716786315 0.17147620747079168 -0.15375055608322313 -0.1116516988095479 0.09563966799871776 0.16481627129504017 0.11641885850901917 -0.09779636002779774 0.05815865972811631 0.14218747247488595 0.10114897759022369 0.1132608092084734 0.09610136786272248 0.05903876002944273 0.058091568019242104 -0.023290373399289688 -0.07605296046127698 -0.00865904645286793 -0.17954930176312317 0.08980955685481747 0.09621502537225658 0.03621837915936127 -0.14297449281979308 0.15449495403725158
düz_ünlü -0.22722783016506098 0.09850186974482952 0.03191907531519551 0.2009248891898392 0.0429457514863003 0.08305628831332898 -0.22545788733130073 0.08327868752528178 -0.07468366668296125 0.17823573644119 -0.17077461029369234 -0.12275540101224611 0.08108606050774667 0.1577516952468971 0.0661808284799224 -0.11655573489781469 0.05011339927305643 0.14917167166271172 0.04421781412704144 0.10277362706275034 0.16460389179840318 0.010678227812323844 0.047402575343472704 -0.1100948213929843 -0.0649493510421238 0.048425963594936346 -0.171722079495647 0.044085607821942395 0.10175159648942139 -0.052960130631041956 -0.08268961247760252 0.18954485957509526
yuvarlak_ünlü -0.15997000830556818 0.07807508936282512 0.05014151784045723 0.09451547905808512 0.068920715288511 -0.03451771915009231 -0.2656050637316378 -0.019572949355788943 -0.0037036070871507443 0.19040650187352687 -0.17051230323489805 -0.06357354158967625 0.10883987752180017 0.24060395365254508 0.03140085985169219 -0.0756995087489242 0.08743409888808566 0.1437203416267236 0.09683932457665965 0.16889613363151687 0.019593833940842 0.02875797609508762 0.03220750034514636 -0.01343395456149599 -0.0910379612826808 -0.03449495769401757 -0.2421089360418619 0.07900868333865838 0.09299893265650253 0.01904367204627549 -0.1587056200901758 0.04944946220055312
dar_ünlü -0.1134600180001031 0.0837348024769934 0.02260300247405584 0.16788065236525956 0.08141791904733202 0.01718013361290476 -0.19884440646586315 0.04092459588094093 -0.0562170807071379 0.19450677353768436 -0.19129921907976394 -0.07442300402263818 0.03283075523918967 0.23065851143041693 0.04240764563305829 -0.18569056649852445 0.03280221768691714 0.15040984812939237 0.08148494273009883 0.1721542453328684 0.07759854417574152 0.05572993912704498 0.0686846323158842 -0.08426155780379928 -0.049813072196865586 -0.0006190307673807332 -0.21456758588527283 0.057742879641202734 0.12858712080124976 -0.02756695102390837 -0.13432479668220285 0.03403819079693004
geniş_ünlü -0.2693547435522435 0.0884807861846566 0.05451874482428701 0.1174841846365809 0.02740903588136307 0.020555011586462595 -0.28790887302029955 0.019784146592207452 -0.015505500367425595 0.16871379567269834 -0.1397169953886445 -0.11032983713557533 0.15665994960391305 0.16494116142518297 0.049787481727106626 -0.0018096008532606143 0.10285464740087501 0.13885012203276545 0.06546615668267543 0.09912215989964258 0.09693183528760357 -0.012774098049756542 0.009342563997683335 -0.02752807337375789 -0.10469018222303843 0.010600698610479652 -0.19449384309033657 0.07132018943606608 0.06427979079265786 0.001422838697597208 -0.1117648642283221 0.19499275825528908
palate 0.23782986242986545 0.019917643659492595 -0.03646164173127246 -0.018278995225260653 -0.00856962389273606 -0.10443103691469927 0.10287737336511993 -0.1423263695675365 0.005319364703531322 -0.0887911697475538 0.09006116472040313 0.2726225216874461 -0.09661762453379034 0.03481181599829036 -0.015344019632903584 -0.10099077560083419 -0.03901025157125457 -0.11670884702987877 0.011585293366549313 -0.03999038326625955 0.11735322407416364 -0.030841429710585025 -0.11743298020671747 -0.13077927663666114 -0.022457276042790787 -0.0941211548280554 0.17406297898139916 -0.0413080482970629 0.018522182754924656 0.15363308480911173 0.1251841275920249 -0.036554967802703106
ç 0.0989801618836518 -0.23522789960973797 -0.01127084345439094 -0.238190431329204 -0.15442156897458686 -0.042421394948342524 0.23597528320466685 -0.08023399364731591 0.09279313205775382 -0.28344675498909416 -0.01677381069826486 0.04090732707391541 -0.2276473430630114 -0.32215607530617507 -0.13295318306341608 0.3491012150247751 0.012587176420658305 -0.13109980934674442 -0.21399202753250168 -0.18435242152132245 -0.05194387342504558 0.11111274039919053 -0.12087043027199516 0.05495105402368395 0.12683218935795965 0.04408468939557058 0.28035125308216485 0.03242281128708766 0.041425047056280924 0.0920068616834058 -0.162560623938512 -0.1348735620019101
ünsüz 0.03686690823588958 -0.024285875281000534 0.006961636576507421 -0.03471479164204767 -0.008032685324692854 -0.006984409237479523 0.061864983981616536 -0.021715079968948385 0.008141453061037826 -0.051443788005392566 0.022845182345001692 0.02329087112895386 -0.03998988853900851 -0.04755534811402248 -0.01664032771054406 0.03285595839965683 -0.0033094483560644253 -0.032714106318046186 -0.03716699371033333 -0.039579845839750494 -0.009228210537767779 0.00501256305233289 -0.02240986064269804 -0.0006869179194369402 0.019374686713580953 0.0030566518409134076 0.05735211436055325 -0.007189759171266736 -0.002261088698219502 0.006015606441254068 0.0044462360671639264 -0.019637105012671508
voice 0.03164149002947942 0.016650909301413462 -0.07413929462268588 -0.05624603897346235 -0.03477293336870296 0.018363881665598738 0.01907255201340772 -0.016941777082840087 0.01461174163055912 -0.06397781862595325 -0.02773835060835601 0.08037714880354233 -0.017645838235935497 -0.05350281212441969 -0.024425097371659824 0.01597231655327701 -0.006501113811404519 -0.09674590065988382 0.007969119840960796 -0.02096002495384739 0.013392778540862044 -0.08165999194303468 0.00016930437851017161 -0.027907761105798366 0.011161082726096614 0.008721337997889956 0.02611677691656547 -0.03552748036429136 -0.03939029508172103 0.046671837886231166 0.09185657194845176 -0.058492659284178385
Ç 0.08715494788094062 0.10449989941685246 -0.1805837534146423 0.0697779513739803 0.18826828260866918 0.14475558110066689 -0.10301346497319945 0.045030154308441706 -0.38593929581520525 0.28974084192365246 0.18868331118648476 -0.030460421486286558 0.07765197010118857 0.227420769358752 -0.02320805956455669 -0.037618476815390135 0.2486700841536979 0.16947394235052893 -0.0007974636853658202 -0.3527593946358374 -0.07325989609761158 -0.03072515254893967 -0.010413246201347115 0.043282914202706156 -0.037504691578515215 -0.1996157567829094 0.006612378404732755 -0.24628837700705175 0.07498283236906743 -0.20194258863307202 0.20671496631303254 0.23374170888120033
A -0.45205171650838744 0.07591556938519876 -0.019754396748962517 0.17846429057703034 0.032693120091428406 0.14831171827856135 -0.3233173478916231 0.15098948056157274 -0.11273087518611634 0.22618416800381178 -0.12827213067891027 -0.16250878926792672 0.20499244906581643 0.24333613392428383 -0.0036418458305899916 -0.04284211001669019 0.0881514646657604 0.1592751207644523 0.11339524327519039 0.07650409190022446 0.23911998364360287 0.033174373659322826 0.04959460246626675 -0.06868413991111068 -0.10731368978808971 0.04378698387511634 -0.24132398277557063 0.07759562860977852 0.06486214874837547 -0.10320539668317848 -0.09317092203151565 0.35313796523061314
B 0.02300866678170876 0.19047936426605966 0.28687742716862386 -0.13763711826585223 0.29914152786781834 -0.1294245374549785 0.3475852827804427 -0.03375354812251299 0.15256095493981217 -0.12602242362752114 0.0451196879825329 -0.015260553706470585 -0.14654769621948657 -0.22406185755441205 -0.16785522996416857 -0.030114050799333415 -0.1290783112099087 -0.31510373587975554 -0.16235654419928994 0.056515809473265184 0.04493676923091898 -0.19146951713155005 -0.0006710399154242183 -0.20617044023909106 -0.02813595127352099 0.28033254288312853 0.005486918937698314 0.09224890854805659 -0.21031320671580087 -0.13368510965959715 0.17978438259630797 -0.1388354851871588
C 0.02966789012269655 -0.13846830357800893 0.32648801350998186 -0.17459460394863807 0.0019795706120601685 -0.09096732110868924 0.18007971539181122 0.08322488121010223 -0.12510263346234027 -0.15096075544165835 0.018682365166030546 0.19761088096201349 -0.024251951113482387 0.015105037055402209 -0.16621108080145927 0.24652253357338474 -0.05685119312174118 -0.2302204744050755 -0.06245728046969803 -0.15102251038034156 0.15871837848079756 0.40518044823455257 0.11440924943037661 0.12251857867586308 0.01857003842166515 0.04309937910507985 0.21137290770629277 0.11726649687953897 0.039537601474404875 -0.05250855944984341 -0.43729886886450686 -0.046579654914872724
D 0.2575797878092435 -0.14642853740982334 0.39878982633995236 -0.009433278628499667 0.22185057182891832 -0.010790094289154482 0.4456175141981853 0.02147669236113551 -0.06627440447987262 -0.15110902310509006 0.058830320036659015 -0.05540156403462239 -0.1791759115637255 -0.1516680301059979 -0.06299085750485046 0.02411459761344477 -0.04649043858578764 -0.002801624272847186 -0.08574431597410169 -0.16118284639683378 0.02007668939600208 0.2917924864329566 -0.17139023486106633 0.008414774256111899 -0.14162945886694092 -0.07278383933995437 0.2858198176157081 0.04147009698330942 0.040830653965846994 0.04654311515822306 -0.28154474399344437 -0.03218847069107757
E -0.3895366630658306 0.14397403522792115 0.08978841559865297 0.2607873275889259 -0.03903438603825992 0.031262344396973674 -0.3702958733576143 0.12849695706969852 -0.04644397590205896 0.20252175906521833 -0.17655001905313486 -0.21662708527270896 0.16110693663407727 0.095442702319047 0.13700787148616983 -0.05917762520027404 0.07229718107271027 0.20535582059398047 0.10863885125355736 0.10814965847053767 0.24704329951042597 0.0031064754543615675 -0.00016242924450910555 -0.07880233890447125 -0.13259831337596012 0.051787261360325666 -0.15505655722388995 0.13812968790513355 0.11294398028093701 0.07838349950458742 -0.13300038540969752 0.3669634414433639
F -0.32945583123879846 0.06041743600633753 0.022822908648306724 -0.19748448772241783 0.021002833336614485 0.1929806769016323 0.29855010080277333 0.04777920880197866 -0.05680535544617535 -0.3181142655581668 -0.07254972929620601 0.09101462353900071 -0.2096393880174068 -0.24122641382671753 -0.19366472931473644 0.2450081068257809 0.11275418897541077 -0.08797114371020634 -0.10313852458105673 -0.055615501225344664 0.023314954330085794 -0.2951657141852723 0.13400394024791665 -0.013122322982542234 -0.11945623972505123 0.1833526285923687 0.013380062617093768 0.1525376042882104 -0.11461093163719276 -0.09221697686557032 0.2979457742133751 0.0236366469165765
G 0.26933265394111333 0.05002087007478793 0.09664417080767033 0.10028308744896336 0.1632154560562543 -0.2076578008805928 0.2811770610886779 -0.24562928708566822 0.010720912827144281 -0.07523828657901968 0.08815979321763705 0.3063441559395256 -0.07104421074714254 0.0770545702806685 -0.12783274471902445 -0.20161373154404966 0.00831215632099088 -0.10066170801145666 -0.16728173407709784 -0.059901356767991076 0.31330839605100086 0.0452189743458463 -0.27391879102270644 -0.20691265974223738 -0.16112843147039632 -0.07195172903920342 0.2767289775731907 -0.23702691652562513 0.12719181080482267 0.09143114420176518 0.040908495278384804 -0.06266933299806446
Ğ 0.4269747611272078 -0.08331193381613147 -0.1527947369420761 -0.04414774968448488 -0.08983482827753776 -0.0504397777000438 0.1541367230407717 -0.11152338608495611 -0.0593493633655894 -0.0549053360710321 0.27103215664016933 0.4013541189276295 -0.12825720618863665 0.09265643921785587 -0.08373145568373827 -0.09092311108934319 -0.08708747270294125 -0.10686258908599837 0.20163172524836206 0.03900298018032879 0.21295977683578873 0.01863452101003893 -0.10650185238767126 -0.1369274722513249 -0.04677684801888625 -0.1429121183468618 0.22641779417595154 0.017655754438092832 -0.06319475907838232 0.19296576547885758 0.36030547083707143 -0.05746493003571814
H -0.10499013417153202 -0.19067795676728283 -0.4526515986047946 -0.16383410757325761 -0.2756981501137519 0.24207862787239667 -0.09249362525272958 -0.08897651635845481 -0.038480269551664496 -0.14640682728411655 -0.2550510760896926 0.14384769724851984 -0.07263048282297749 -0.1560435959583074 -0.17928273857137106 0.25087068090755493 0.11169042722085672 -0.1846865380128182 0.013109078740796764 -0.17226438404541225 0.019441765232540785 -0.13518607439393018 0.002255440109829055 0.03881765779971142 0.1333897334859043 -0.016579051782259442 0.04740303927034851 -0.24527460527743417 -0.017582971246358048 0.16943657114887303 0.17208063994187695 -0.1617991017356537
İ -0.20072609655455761 0.10039328223929131 0.126381192249928 0.2953105213463178 0.11278386821837705 0.12142776338542832 -0.2697734571868784 0.15134702037860848 -0.14317983192594305 0.21386867753596236 -0.2973291875362945 -0.16105528779259948 0.07426538730583133 0.23988528356787173 0.2212413667865948 -0.23418513108100383 0.02547125541572781 0.16783276354642063 0.03715313599611672 0.15930361165848092 0.18310587268383174 0.07103142848150357 0.14057447390294064 -0.16961184772117138 -0.039311842960531904 0.07322381426318611 -0.2382875036227397 0.05113537038242133 0.15594415480264331 -0.08553424211308035 -0.17736502978998295 0.2239220667149785
I -0.2012622959413994 0.17748649062053118 -0.008505961053157828 0.3041864471496964 0.13180154143510373 0.12579826114728349 -0.22164448409055806 -0.025975776592056847 -0.12423817313053183 0.3099690318151051 -0.26741880804674084 -0.09832290415367378 -0.021113029355074565 0.28417820034920455 -0.04581970096650637 -0.23224554066961958 0.11426235208600584 0.27445315418690996 -0.009394294337149082 0.17585045624102033 0.2047906536988427 -0.014553663159020406 0.047078823592611875 -0.22356624988599505 -0.0897777958049031 0.05502547041061298 -0.27307349050302665 -0.026590092020122656 0.20401141135895584 -0.1491405075255313 -0.036928014867541256 0.08550075527777976
J -0.10164711193180444 -0.5208504101530318 -0.0798188453571492 -0.08733933886044523 0.031447747651125 0.04639114721138839 0.22646080091375398 -0.01877716374730085 -0.15549010875612554 -0.045039552233788104 0.22452357796684375 0.0681334255010557 -0.33031358130019944 0.04343460541550118 -0.08354206016247755 0.054269502124209626 -0.16623697264452844 0.10868945296818373 0.2857131693464123 0.0938733716637385 -0.07388081881867789 0.2584855378400126 0.1471101871824587 0.16589267522865017 -0.12001583444639856 -0.19793699149894356 0.06026105613255961 -0.06770257658770158 -0.13432704032775658 -0.019998650247484505 0.22112726400343427 -0.040689259962194586
K 0.27305708756759867 0.09448004460464522 -0.06790344080307525 0.03474804666492851 -0.07791402826204047 -0.27906645495540555 0.19594294852637276 -0.24137210610084212 0.02469733422452594 -0.24839693380807826 0.015796680598081425 0.23643924414831557 -0.19393524784385235 -0.2048781476508313 -0.06655280606646313 0.028455708680599393 0.06404393086658693 -0.17518989696220574 -0.15911031152016983 -0.18386895863589492 0.09218037114493689 -0.04257150997225137 -0.12452775530181626 -0.16075396255493732 0.013417422199641281 -0.07300753478012725 0.32911217640672574 0.027573479724938513 0.17591286922819444 0.41895255069582776 -0.05574245184796288 -0.004921280240827416
L 0.04541944422418275 -0.3159936157628498 -0.08125116889094379 -0.21047745249348987 -0.17458953852525544 0.09458386794782242 0.19844754461482703 0.09309497105281375 -0.0045679260219578365 0.024756341388371152 0.24681266123461937 0.1607260230350605 -0.035656525262256544 0.10744322296167422 -0.20462724511592553 0.1997453045310631 -0.1450782242516897 -0.12117119362601696 0.0062742148150411806 0.1838244321437539 0.1467963148080172 0.24095084248961257 0.04256798350265833 0.3804571435025917 0.1583314134201225 0.10030239152175136 0.07983974500810259 -0.2150073198095346 -0.3344964174536157 -0.10206826610319227 0.07933744969502811 0.13506710346953515
M -0.04046783207048574 0.07439829368674768 0.11832609220309509 -0.09220866892427192 0.11418928065583263 0.18919577320369876 0.34236750550076983 0.16481692249992297 -0.08117243806904006 -0.262997994081711 0.06938417216546314 0.06640570376283238 -0.16968497071701394 -0.04508920876739492 -0.0992875432548691 0.1466217594779425 -0.09595550436524675 -0.2434729646834943 -0.026248923381173097 0.1748233378365783 -0.07576839634409288 -0.14924485861845174 0.02958646091663289 -0.21923138231254607 0.029181467562237027 0.022107533968779305 -0.0686940107120558 -0.03371953919445573 -0.39339021329411084 -0.21973945210962836 0.43604922092377124 0.06244817720490258
N 0.1847142859032474 -0.2872228687526284 -0.03084981906051714 -0.040248791293156595 -0.04967822585869337 0.1954109223805766 0.05977288036270657 -0.10442954196303761 -0.13199654602593042 0.05500561500176695 0.4193452719428966 -0.15616134157447772 -0.14504767854392583 0.14527656541634004 -0.08672242348902029 0.2710676822000912 0.0030361489010799604 0.12963814313782962 -0.06095587742088971 -0.08122903168054056 0.10780432906206094 0.3308610258350444 -0.17825219773863374 0.12426726629200364 0.20481251407779974 0.03732418625447395 0.1403593230338388 0.08152748875872431 -0.04191064537915271 -0.3449254743681925 0.19539103238762004 0.021641046817796765
O -0.26596149305196126 0.1387142382408249 0.052475766126899345 0.12703809802259602 0.10459160231570652 0.009755075450043636 -0.41584403120194924 -0.18154688872882072 0.09351012968681006 0.22182719676152268 -0.24459742428124193 -0.11453967477994696 0.183092419557077 0.3395443320315609 0.0158355262026439 0.019657832074957072 0.1953192776503267 0.2026856458968118 -0.019080628667103784 0.24504362467129326 -0.023910062215628497 -0.08090852033267296 0.004288565221973485 -0.05520196803330457 -0.13250881967116818 0.05192421235190641 -0.32189855671761625 0.038596199536643803 0.12466028301994689 -0.08363840014163391 -0.21351411192177203 0.06994555185846497
Ö -0.29403779887067516 0.09101244094512512 0.20155110182540892 0.10313527459870817 0.08300792240804093 -0.07074256489205401 -0.3840559481306999 0.010257539016324988 -0.08560870727154281 0.26691316943699284 -0.21165850029316624 -0.09162873543082097 0.2124825826970531 0.23850958652478924 0.1358235535326915 0.011186501013695758 0.1796412403221395 0.19874009488339792 0.15201918233328815 0.10616182147716151 0.0752561380488357 0.04538173946660596 0.025911960172561962 0.04287939317469851 -0.17525998318130093 -0.1057017601785687 -0.312997411302629 0.11716872790323045 0.07638826227489606 0.11854202376103995 -0.1697300248922101 0.24342235632619005
P 0.027414427695781216 0.13465824089844852 0.20235611069680468 -0.09146094717072374 0.19906560085227726 -0.03989282677621986 0.19992821179263748 -0.12868951475009366 0.10740380382738014 -0.32369340506431005 -0.041962038919643126 -0.04806938942395079 -0.18023360331788663 -0.36682065479165216 0.09997015586644252 0.17011227011220295 0.0636670808662143 -0.23180299248246133 -0.27520239824057857 -0.20714458282065218 -0.3019498424124743 -0.14582507402368916 -0.053143649086919 -0.19521647457733135 0.19243412989354836 0.13385561966576806 0.1394591977337834 -0.03955391635111149 0.15654890799521687 -0.030761642149959592 -0.0960572509587209 0.06419971144731079
R 0.09957587470487342 -0.5966594300153872 0.12811456988524667 -0.14236380245093794 0.027366289633961916 0.16572123192656282 0.1652145592704761 0.02125620810276197 -0.0646452932331594 -0.11799595600212821 0.14112331007379786 0.05606073282111 -0.20018120253152957 0.0775481937156168 0.0569389951466462 -0.06245925328765584 -0.014623573619597117 -0.09091636077711943 0.04965979607351782 -0.1097887054657227 -0.17189339671972073 0.29101767066338663 -0.020985719817498878 0.08367065816446921 0.19740349284595118 -0.19718650874612376 0.17929142957603528 0.06969507151550836 -0.16253985673165386 -0.25473176180770046 0.028949774867671186 -0.12973410356101733
S -0.1344410958629705 -0.2575816995289322 -0.2684450816933266 -0.07575119113986814 -0.23283168777446084 0.05897059544343501 0.14156807981576947 -0.13309780261660256 -0.026612781779713116 -0.1747764438087641 -0.05409561833211759 -0.024061891278166565 -0.22243208728922595 -0.270507779052411 -0.14977728286817651 0.3083106486889195 0.2266806286135348 0.1999071120480749 -0.19517202053816632 -0.32428121079461253 -0.16866216865963618 -0.019356440620607648 -0.13429467929257977 0.07633737410426665 0.10663425085114503 -0.03836846427949298 0.21652329800754766 -0.09016783301245478 0.2362955214861763 0.08610200570039853 -0.054925625448831554 -0.018544984607345744
Ş -0.2106317984987763 -0.23424744285067933 -0.27128328590752476 -0.04271293976763116 -0.27743336376749683 0.2793324685109059 0.06881393928015733 -0.18829501830719664 -0.07681676135427298 0.0056100655881847665 0.11089388763187408 -0.1243920626219133 -0.1866122008348312 -0.1244752821342179 -0.12795716931548262 0.31040114882052006 0.06260987564487992 0.1950645951779251 -0.3170039282467218 -0.30348802288419346 -0.08867759637643069 0.13890998670725624 -0.12412642393535395 0.1622452419673178 0.16341627624153945 0.10829270406114298 0.10733360893489913 -0.14679174889398544 0.01726755969349977 0.019808475097622156 0.11864472383551958 0.014034179317397342
T -0.05619455952225173 -0.07682747555612142 0.077504642376799 -0.07899828104629755 -0.01613909532093278 -0.08919648443181859 0.2160542559974288 -0.2075451260999926 0.048339337474766673 -0.1284612117363435 -0.06093170979396217 -0.15078331942552334 -0.135445877086871 -0.20648384353362198 -0.05180138969128236 0.23923939820075973 0.04749959913873641 -0.026031170385105076 -0.41621670610356587 -0.34289154490554896 -0.023110406243990328 0.05622806711709879 0.02215832215212426 0.00409255321137502 0.07479583438228382 0.018151814530812743 0.24186532450924936 -0.03622284799931458 0.16655081256734233 0.08947352454160704 -0.45691397398062883 0.03345254629260538
U -0.11621195111163246 0.14833170742447926 -0.0018450193628492604 0.14085766883242656 0.056323438182660265 0.024586181412735053 -0.33704253841267556 0.026022940589409536 0.009710575965195596 0.2784995431404571 -0.3290254647168854 -0.011333349589643616 0.085274125581949 0.371328128374292 -0.03779957570481311 -0.2457897118485767 0.030608166798792195 0.171196467404791 0.14006144134880907 0.30683768131350975 0.03601231411239367 0.026725958594002452 0.037247103599137237 -0.13914851306167947 -0.09252072695386797 -0.06578312134949889 -0.3740534918313992 0.08654618289844529 0.14658358327992113 -0.0014223660234419365 -0.1963996296673514 -0.05929952224567415
Ü -0.2063476127457067 0.021298388753241377 0.025132539034640314 0.17745042965272043 0.15222768849648058 -0.10765247041210267 -0.2682930429634716 0.04324171276737155 -0.09051962228716673 0.2662803123113284 -0.12970871106615398 -0.1442151274973055 0.06725153378243143 0.3741082589459209 0.05751505356470215 -0.2073876639074712 0.06452910423826055 0.2198822651105121 0.22882661944496574 0.24043332302661638 0.058123967888423826 0.2065789125398629 0.12600297215422887 0.06580386148528292 -0.08119449916155198 -0.04769441270002713 -0.28056559193806974 0.16413840804793284 0.17437593522034062 0.029778428063650796 -0.2792796804690382 0.04952887953868953
V 0.03470078278349016 0.265081818058155 0.13974657191361328 -0.21529016808822815 0.09544218532477776 0.142901914207022 0.22608461457679005 -0.037515440147930706 -0.120645541120974 -0.15844819391460144 0.1355347324550103 0.09931547431188154 -0.21370294428748737 -0.09860574583463105 0.15493567637058828 0.010786649745340972 -0.16751029529865352 -0.28462436742522346 -0.15045735943092156 0.06335806748937046 0.043938007970755436 -0.16651030519067092 0.10259902599930736 -0.0752469905821233 -0.09297112385507 0.13945198718277546 -0.043008860170650746 -0.045781208326966534 -0.3724124388895271 -0.06776248175241917 0.46153602204748184 0.023170930717279457
Y 0.3179396701555221 -0.0025210088803811035 0.01175812824641166 -0.16137546770960182 -0.0011673465061318481 -0.04402356260495512 0.10358043043673375 -0.2200152742570022 -0.012177941603229358 -0.15451120643955263 0.174977776418701 0.4838180915771615 -0.23942738149464418 0.1633449692590844 0.09106728357138177 -0.1715434715846789 -0.1489877019740814 -0.22779477051492386 0.054912050878433594 -0.06364481232838212 0.08237836449828183 -0.06682731238869384 -0.16869122785047808 -0.19402349922347495 0.062064500017870124 -0.17881399100904158 0.21040025267431167 -0.03521148105312412 -0.09675467006885785 0.11125782501712875 0.284426021130855 -0.009644445716048422
Z 0.27592035477441473 -0.21417911781260882 -0.00158179782082978 -0.06404195589025882 -0.1314361545610395 0.20289647247811554 0.09989610929092989 -0.07288674781731354 -0.2407047456689403 0.07572838523426001 0.2090334123000865 0.030517958028480823 -0.13719145353118045 0.10087090926743436 -0.20271373652495805 0.18980617588188847 -0.08222601142074992 -0.037180618768670334 0.0459730460571687 0.019394431860352307 0.18561305696432365 0.3788675082205962 -0.16081508554442184 0.3121851506711868 0.18706277521213066 -0.06901851414516426 0.09396571328701606 -0.3067690430764883 -0.11303952585879788 -0.09618740052980301 0.22194131555058036 0.09333262836046799
throat -0.09150818066112144 -0.1672591546667053 -0.4161442660099112 -0.15230767337031687 -0.25208201849326195 0.21820554207675036 -0.08523566254688987 -0.08043164657611748 -0.030128725786086566 -0.13793061373642956 -0.23566646188372833 0.13599492897425267 -0.06363321702074642 -0.1471237699232781 -0.1616071961003677 0.2257043079217163 0.0993855104343627 -0.1770779317685434 0.014151647560529087 -0.15530111397173232 0.016882212259829686 -0.13351462849985476 0.0032608823253237164 0.030871748306505634 0.1213610950888231 -0.014177545998268775 0.04279311492690578 -0.22412941790601282 -0.019599297395521454 0.15871711062676458 0.16258491396735836 -0.1530057659058442
; 0.14966859686502604 0.23479452491384406 -0.013500198994582182 0.06737240629009482 -0.09753618431388612 -0.060789869737507565 -0.19833977278760132 0.13842548189873405 0.22009067221990689 0.17623291748026768 0.14675370777892804 -0.10623945237571457 0.5315333253898251 -0.029728903837594346 0.06753266632092196 -0.36092193129890227 -0.007030296411668312 0.11680653597545618 0.060487024562891276 -0.15388689278988815 -0.30819058198167426 -0.3013029647756682 0.04712916224265959 -0.03558687127319174 0.07507811957406794 0.02638156811723176 -0.1099307440281785 -0.00010137273174973457 -0.028078983798967748 -0.06094055095525117 -0.059461191319890555 -0.06822144196292079
0 0.050399665467629674 0.18200771054474366 -0.21618797387563637 0.21823168831529074 0.14596502201586153 -0.2558683090897441 -0.0406899075719235 0.17774534031116965 -0.019102156052421805 0.05067753779758181 0.020906424140504597 -0.16991623409724604 0.12755751591844586 -0.12067729906723719 0.3572559932911315 -0.0646485234089402 -0.1321048868264284 0.05111968190559998 0.22225251489855474 0.21368560250955831 -0.12547054077073 -0.00019790248959024068 0.2443061130896087 0.35990805147893384 -0.18181129351527409 -0.10588679183792311 -0.06677447946145992 -0.06560248438429693 0.07641967644532535 0.09499623487303761 0.008248100542266542 -0.2044290142840092
1 0.047875217378484776 0.1812303895981016 -0.2136941849830566 0.2191539060055468 0.14669149426171474 -0.2586311264977858 -0.04492802634843282 0.17921028693897503 -0.01786833925679369 0.053736644964564984 0.016889159280315924 -0.17208198511014372 0.13066738408896614 -0.11732706632030016 0.357503742619055 -0.06586403342494773 -0.1323984994520819 0.05179178050928223 0.22491488611869398 0.2171226478377666 -0.12362467212120362 0.004320892079303098 0.24516742031179192 0.3626887960092131 -0.1833638848910505 -0.10636337641012938 -0.06973211820182483 -0.06315122611615928 0.0782560190337642 0.09738124758241044 -0.0007143965119017993 -0.20487727727482252
2 0.048224722053540656 0.1794291955904787 -0.21195705090279432 0.2163434352055161 0.14394045055186777 -0.2539602985618542 -0.04192026370036334 0.17656336904980094 -0.017491087576794986 0.05117192263376124 0.018983198294960636 -0.17071706455999158 0.12804344209324955 -0.11922783937517549 0.3532723703234814 -0.06399740840121015 -0.13000193372543256 0.0520576109736325 0.21943220515946948 0.2112333998849001 -0.12421328472102568 0.0011780729025580522 0.2411966448468443 0.3565452927888135 -0.17950457430823769 -0.10421168684044324 -0.06701152468653403 -0.0631730079486929 0.07708377993332932 0.09436878642478136 0.003065651716366502 -0.20147638267320298
3 0.04901957422117627 0.17871166881956957 -0.211702555080291 0.21468920642444467 0.1434291843590794 -0.25204168821608774 -0.04071561204323262 0.17509055593487916 -0.018197339140898643 0.05031339483137192 0.01987462117180434 -0.16794237376705642 0.12619089791549334 -0.11838634599130485 0.35121473498101285 -0.06374834310536318 -0.1297697393577185 0.050693622597053074 0.2185777340450219 0.210281465545934 -0.1232866595596602 0.0004895419673247684 0.24006781221857668 0.3541218498024464 -0.17870536448587912 -0.10396044321777016 -0.06610309484851053 -0.06376191238021552 0.07561991550206636 0.09366041392124397 0.006001378657586966 -0.20079006414666073
4 0.04856632439942943 0.17736975975128746 -0.2105520926550101 0.21336590440711234 0.14318112762192886 -0.25094780370844266 -0.0415745308360892 0.17424789585976938 -0.01890773226867748 0.05112104183638262 0.019219931643070925 -0.16565111120749093 0.1256153265653131 -0.11541966338259167 0.34910026749450845 -0.06397369477201313 -0.12962597141275917 0.049684273473024974 0.21930698917831076 0.21102573688811563 -0.12127610405917097 0.0019897366042468485 0.2394539056823994 0.35311293783570963 -0.17871507468331937 -0.10419241870895499 -0.06666718630462556 -0.06362474158878349 0.07457883891447419 0.09386115755118346 0.005657506753363546 -0.19994377345149764
5 0.04910804507423624 0.1794021027092714 -0.21226575161802108 0.21537552028200532 0.14343152120788796 -0.25263804455414757 -0.0402374464582727 0.17557814452777834 -0.017616831845469874 0.04977691589413534 0.020115493072458048 -0.16943855998287163 0.1265806295306642 -0.12030036115903367 0.35231656267646977 -0.06349159147509052 -0.12973647514931308 0.05132466153641844 0.21793627868926585 0.2096724353909519 -0.12451423307466275 -0.00044281079918210046 0.2403086547939298 0.35462788540335 -0.17857774354959818 -0.10368540537763879 -0.06575523126157265 -0.06374264791115378 0.07628800671344671 0.09352689795152005 0.005959013379446413 -0.20122554637813433
6 0.05086246602789552 0.18176500405179674 -0.21534983076146982 0.21700951480637626 0.1439389470591966 -0.253496233702929 -0.03823369821351434 0.1762362596959167 -0.017641253853492918 0.04832174310607793 0.022293248087615947 -0.17084231395439803 0.1263946768884909 -0.12408031974396695 0.3552784293520831 -0.06328633468647873 -0.13046319463789516 0.05184242918843265 0.21732816509532216 0.20895315853160698 -0.12711493430277163 -0.003310152555771896 0.2415810921492062 0.3559036865483557 -0.1787194229357233 -0.10369440486379042 -0.0645573406074434 -0.06525036735282064 0.07662984723497497 0.09287638851939371 0.00989947950892304 -0.20290901181171841
7 0.049480632259659485 0.17986543283119166 -0.21308060843856036 0.21596485291283282 0.14426892000398298 -0.2535354960727461 -0.040508925317588616 0.17618643060652306 -0.018207806619723363 0.05025820715159813 0.020310726650615105 -0.16911784273178265 0.12678523274318895 -0.11975654235817423 0.3535083441423315 -0.06402736943077726 -0.13055902150003362 0.05105344892045334 0.21961803465937063 0.211177728527152 -0.1244152374209773 4.3998447585745005e-05 0.2414598286439616 0.3561181327756001 -0.179654623628169 -0.1045033207914502 -0.06620743258626159 -0.06420427613134051 0.07604269395446227 0.09407646134496003 0.006522330501018828 -0.20199921300403648
8 0.048130432806833885 0.17698770628114882 -0.20971968236283112 0.21313014992902526 0.1425217493742677 -0.25047585008680573 -0.041528614736749764 0.1739837233296408 -0.01825635033411262 0.0508906036716264 0.018983267921878936 -0.16648647110867854 0.12578172753032196 -0.11598600860500491 0.3483997796608399 -0.06359565175581428 -0.12892182036678243 0.050296465917122134 0.21797630027268083 0.20978469059393878 -0.12156926124986234 0.0017524812035813304 0.23855603003462952 0.3521716909273607 -0.1778703108179915 -0.10356134097983116 -0.06640963362912743 -0.06303364898779866 0.07506387221624902 0.09346573956255592 0.004538061096299654 -0.19923973514135007
9 0.0485190296666599 0.1780404934906902 -0.21080052496064908 0.21414182360978878 0.1430303395836964 -0.25151091513095114 -0.04112004707632319 0.1746986602830981 -0.01804284997916782 0.05054292221031496 0.01934738556315071 -0.16768439208816144 0.1261579417775536 -0.117612462347338 0.35012748644900743 -0.06364487936738907 -0.12934923585477553 0.050670624029648476 0.2181846784200822 0.20998196023643012 -0.12268768694255386 0.0009979024167906484 0.23942212328139914 0.35334671386569655 -0.17831479067054648 -0.10369272961992167 -0.06625263026773363 -0.06331744778322392 0.07560751963519331 0.09361328803645272 0.004989327697124284 -0.20015914729877074
. 0.12995164600323547 0.22445188692217793 -0.004506337169479763 0.06665084306394356 -0.08643169471754275 -0.05228221755558368 -0.19643524887872538 0.12778417093100997 0.2018683295350399 0.17674044137811085 0.13512965420683754 -0.10633324257764074 0.5047214982396769 -0.021312265630161586 0.062305052417227925 -0.3351319160960178 -0.0024607571514721352 0.1144934542806505 0.05721454967318481 -0.14903920190927192 -0.28935747320968164 -0.2856497753357275 0.04672995209230797 -0.03285330397210815 0.06841049511450328 0.02506008035839753 -0.11091619560768788 0.0012688257272858185 -0.027386294277741436 -0.06280245388357425 -0.05567249411595568 -0.058361955257746505
, 0.155168477623998 0.21982478313239234 -0.024578968379421962 0.05455627546010988 -0.1021221326607147 -0.06097256412622643 -0.1783338652632389 0.13160416971084887 0.21622136268910203 0.15593944470978122 0.14301409907087892 -0.09340232937384052 0.5010921076528351 -0.035695547097418 0.05981438930511101 -0.34396216490809634 -0.009081703543521254 0.10723944170368432 0.056837181746827954 -0.14254065560756984 -0.2959869803567928 -0.28976629459184033 0.04116425910418875 -0.032457929693890185 0.0726736438611187 0.025006650204611354 -0.0986073399344293 -0.002838232985770066 -0.03130294090021834 -0.05305624734343609 -0.05008758509172333 -0.0763357901482863
: 0.15021194052121944 0.21796865433503124 -0.016059343067573128 0.06031913361725663 -0.09572056623034236 -0.057797677777409004 -0.1810578556820555 0.1239965749977905 0.20993500452420139 0.16343828745717529 0.14066300600655043 -0.09542244557461292 0.49602638612139155 -0.02650800790720794 0.056811312464267266 -0.3463540935813433 -0.005019545780394872 0.1112403166281223 0.05131873019052947 -0.14821364354390243 -0.28453685777697396 -0.28316026353350515 0.0373540555933788 -0.03952203572855905 0.07132280849972954 0.02530162611763296 -0.09672607115737031 -0.000655186937345765 -0.025721741068103373 -0.05283093546051067 -0.05606396583930791 -0.06494624042170927
... 0.14093472226627488 0.21596697633515438 -0.01568873843537501 0.05936970978098308 -0.09276832483063496 -0.056078250479201674 -0.18179673164465354 0.12870656170952827 0.20483218607515324 0.16053051936545287 0.13655167857586648 -0.09686437087294929 0.4908500231782502 -0.029583352564112705 0.061522083184825535 -0.33218796822562024 -0.007365703532080003 0.10675831451051844 0.05693871544734694 -0.14128961302020085 -0.28720106869595746 -0.2800543265413443 0.04363832343482825 -0.031087076133074938 0.07020270988434893 0.02401463591262727 -0.10111128318016477 -0.0009073087885220015 -0.028376371798845258 -0.05623509486732866 -0.051938248857155395 -0.06697001803129783
? 0.1479116921929357 0.21703851967075025 -0.020379303800696674 0.05904039755626585 -0.09733945530830104 -0.05818870912614175 -0.18185366824998317 0.13351603743618531 0.21064563815252713 0.15911624545662742 0.1406823037407493 -0.09683066123634852 0.49860106632854195 -0.03323061085034662 0.06407263593390446 -0.3395043470880509 -0.009721394223942251 0.10678170078685847 0.05914209101193467 -0.14219300648685604 -0.2954355547275408 -0.28400495466017084 0.044749318437290984 -0.0301658653470254 0.07400394745663706 0.02369786612513417 -0.10035724089932765 -0.001674034059345989 -0.0290668948967058 -0.05652089417232635 -0.052744806231779635 -0.0720019584047904
! 0.14869820055715385 0.2164796884818249 -0.01860278278430957 0.058968681682827595 -0.09647327688429327 -0.05794935986524779 -0.18014984068762102 0.12803928710955864 0.20980716255851406 0.1599367680528457 0.13994573771647156 -0.0955840802781549 0.4947047047751093 -0.030217802904293267 0.06001217539030576 -0.3417592036154453 -0.007271877040629535 0.10841287188581167 0.05450025489049589 -0.14439488298496322 -0.28844790675401555 -0.28256059495964597 0.04064885681833286 -0.0349187122902408 0.07225979595647813 0.02473153906436903 -0.09779904575087107 -0.001198485088473171 -0.02745335499517545 -0.0540845133750136 -0.054082665833540336 -0.06835153204449548
" 0.14251902360213742 0.2205077913416956 -0.014769498966842933 0.06341145430115344 -0.0938829640026307 -0.05619109013272558 -0.18886671838699343 0.13412180484330416 0.20852425660458151 0.1665159228120925 0.13987081740245796 -0.10090278153348732 0.5048806304248263 -0.029305352196324227 0.065539318215184 -0.33969259124640705 -0.008362563455448457 0.10968629801024514 0.06077258851545501 -0.14480942724495435 -0.29693578903923357 -0.28550767949236305 0.04698575625784131 -0.030251659863069307 0.07351651376378625 0.023486692024574943 -0.1050341111592074 -0.0005028448033881032 -0.02814631474281155 -0.059957561258119206 -0.05459583639684913 -0.06822851585257218
' 0.13888610271459137 0.21963445048015917 -0.012201214513570827 0.0626358121393502 -0.09126779694178451 -0.05546230569727298 -0.1872469604173672 0.12927537423826702 0.20532274133363695 0.16647204333252263 0.13710786515005047 -0.10035786096005289 0.49810058924445727 -0.027041724574113347 0.06253712306684661 -0.33627798124432406 -0.00603287920435274 0.10988326597797324 0.05711149783227906 -0.14471155155169085 -0.28935686887804557 -0.2828583264699989 0.044653568974524736 -0.03241918902877002 0.0704462779021196 0.024496722454805966 -0.10417432162054029 -7.748424540180213e-05 -0.027496991427668052 -0.05839691466591441 -0.05440226432688312 -0.06423631491963311
( 0.1292441761784464 0.23201669491352367 -0.007136078997986521 0.06468743068557165 -0.08831358642485643 -0.05582454463637447 -0.1989611806165217 0.13805274350905072 0.20640190265575317 0.17393031187198793 0.13625964744116373 -0.10709892039039548 0.5152877907831145 -0.02952962823988134 0.06894660377870312 -0.331076171440815 -0.0070667912065389095 0.11022304840357247 0.06553216227376035 -0.14326109425227213 -0.3014440631238042 -0.29430851189419327 0.05347037941422951 -0.025191414402756275 0.06783910070240234 0.02508156850871906 -0.11729672055976774 6.754211855048097e-05 -0.03263173597173751 -0.06500771066032492 -0.050403141698150425 -0.06589325492183251
) 0.13988132134708547 0.21667435810267044 -0.01448848539483463 0.06010392699641423 -0.09199921282261579 -0.05582512675448396 -0.18282051705231844 0.12833438321281462 0.20446223812767222 0.1618037719194383 0.136237909216171 -0.09755162435186894 0.4915761448942734 -0.028741036804275727 0.0614878766412919 -0.33246438583456717 -0.006858410984572985 0.10739733859991295 0.0566681774040635 -0.14183483667185157 -0.28678076031979094 -0.28025664814761336 0.04368803442263146 -0.03156346340367635 0.06982939718156468 0.024215153259311947 -0.10177659929950807 -0.0006454536924225574 -0.02807578087763753 -0.056600186668319584 -0.05245227399260211 -0.06591132453364536
- 0.14079219273975216 0.2157887039208114 -0.016151611473898483 0.059415883164486163 -0.0928451088818539 -0.056164111773673114 -0.18177163396229015 0.13035090177453068 0.20449967448432588 0.15989656097158547 0.1367942405434702 -0.09647525771771039 0.49135838254768643 -0.030458981162238954 0.06261734744976938 -0.3302343420137107 -0.008492682284787442 0.10580939061538881 0.05895481403978459 -0.140126273400451 -0.2889354399541424 -0.2798305851756067 0.044848387809651 -0.029224425896511735 0.07040659998795849 0.023192501133185023 -0.1016315454855452 -0.001185533196364126 -0.02874535575142168 -0.05673469270197305 -0.05109615483152248 -0.06837453462800074
/ 0.13549212988082873 0.21840583613441505 -0.0116963184080548 0.06277791093652985 -0.08984482491753391 -0.05476488606189394 -0.1873287630151491 0.1307470328861299 0.20280824126451713 0.16558129626316118 0.13571209216729083 -0.10059632878605891 0.49567281307049055 -0.027734225474102214 0.06426633683635168 -0.33071002551490003 -0.007029538883813481 0.10825142803700366 0.05930350782152931 -0.14238616844649685 -0.28968947213206103 -0.28075136699066944 0.046742330846595605 -0.029384544105057177 0.06999056827698717 0.023594097716560805 -0.10530660175632299 -0.00014015090877934398 -0.027876918767904265 -0.05943000833877011 -0.05323599925038062 -0.0645280491588813
\ 0.14104997000260652 0.21821760806043322 -0.0151382605595015 0.06067071848408856 -0.09303012028306629 -0.0564322137289073 -0.184399687589109 0.13034563707221997 0.20648236914179355 0.1627393786302901 0.1375289317271052 -0.09870746460927966 0.4960631428037641 -0.029675191092230387 0.06289475016671892 -0.33538942797032817 -0.00730686161973478 0.10804612322367727 0.057575873989759434 -0.1427689712061664 -0.2903158583845123 -0.28254546674092645 0.04468061512637276 -0.031191275641851455 0.07097523880927634 0.02436576844685649 -0.10268991177783371 -0.0006873158324053598 -0.028335213979069955 -0.05736943174535529 -0.05312332662217444 -0.06692410388163107
[ 0.13870204708348818 0.21663322487552514 -0.014808479951931379 0.060222771019500444 -0.09189633346017655 -0.055863919335900146 -0.18329313077881862 0.1299803939191024 0.20434432952262577 0.1613485087301896 0.13598778469573916 -0.0982969745838835 0.4920218623919061 -0.029808261374333157 0.06308276112717567 -0.33127529125156413 -0.007496372685486753 0.10680515704698354 0.05778780485349738 -0.1409391657814107 -0.28846681260637264 -0.2801854637409698 0.04514981623453772 -0.0299811516828226 0.07019820142593494 0.024106436951811732 -0.10261407978233368 -0.000680576131374975 -0.02838942609101429 -0.05736125480116331 -0.052339954488876586 -0.06649953138671287
] 0.14093871239064953 0.2253138378365765 -0.016196084206181408 0.061972256795734156 -0.09511791126914411 -0.059404212591691895 -0.18957378637279185 0.13481816638226288 0.21578758791023936 0.16505522278813603 0.13851361856582373 -0.10745913905285223 0.5077802129596415 -0.03449773141929911 0.06859609462481168 -0.35272441350027217 -0.00582115354231074 0.11112631985921154 0.05227578199104639 -0.1467697207460472 -0.2966316474455888 -0.29172840487686863 0.046972825463067275 -0.03543265106846786 0.07410528067994322 0.03131966075471789 -0.10537896470131754 0.0007940230685925571 -0.02922047095635378 -0.05902997474979845 -0.05903312837550169 -0.06417965868834341
