106 16
lower 0.020368787765349186 0.0267098515070404 0.011032040396070569 0.019392351434161133 -0.005836694836866767 -0.04154073718248169 -0.007117778319642854 0.03757979993996895 -0.008287814229873226 -0.0021905767598421506 0.009495701733633382 0.015686121375997696 0.008833462851007438 -0.004509690170949402 0.052249006139512076 -0.02010152368887611
upper -0.013541961568068901 0.025110186610750505 0.012937556037195944 0.019277912987515286 -0.0011026805510173454 -0.03207730040523056 -0.02462930627121373 0.014569237369615943 0.003892375754562154 -0.0020146517823834732 -0.006085238830395443 0.014193170161299708 -0.01628509335574401 -0.01044124896510491 0.019505676139981935 -0.010096959922312422
punc 0.3694912866719712 -0.23647014462687097 -0.16329843978854755 0.23316429561309734 -0.16059890623952555 0.19166543791759447 0.21590083279700198 -0.09289660740966996 -0.10252269495378673 0.020139153946532973 -0.043527370381011884 0.012944757797763341 0.24938182166864684 0.30856530176252017 -0.38693254146353845 0.38073074471637214
yumuşak_ünsüz 0.055611677780382694 0.1253325266629017 0.07341228018050744 0.03706253532687896 0.010419720894193567 -0.12147718714091248 -0.05791884386192478 0.033532178118491116 -0.0409383329537747 0.0050694986343953075 -0.031821591711503325 0.13196300858793122 0.056046341099776444 -0.01450579174538252 0.14298500302035902 0.0058350957592392585
sürekli_ünsüz 0.07533061566237145 0.09885675341569554 0.07099795715702775 0.006777340945347345 -0.028324424643651442 -0.09537732788755203 -0.10624567613587328 0.07955998126600598 -0.0567312872747974 0.04318420342322191 0.0025072020549355483 0.03814412530472737 0.0861393606555884 -0.005207349875701021 0.11809938023685476 -0.018920266780571116
teeth -0.06447876697753692 0.06171735838860054 0.10936991862424614 0.03434996051481041 0.05812928712343107 -0.029689507787569222 -0.08998637993246528 0.04541241256581193 -0.025001206936656226 0.09408663130541069 -0.12655463670921807 0.03322852008577773 0.0569407477190126 -0.14074491363595104 0.19023671827432248 -0.07838746856909218
sert_ünsüz -0.04538538415087424 -0.051357945119154105 0.04033890885436234 0.12813081158910278 0.056995360728927684 0.10828703585662822 -0.015829841578543728 0.2018757461081141 -0.027674878789212487 0.06419970634963613 -0.052518031846003656 -0.16495034867082362 0.021326072021919655 -0.09731435983612466 0.13723884250358456 -0.17408421459662635
digit 0.03376455742283159 0.39544161703788683 -0.0022390418505299054 -0.09134893031301168 0.007751356804711832 0.46372960819558706 0.2263440346414658 -0.2493310021902236 -0.03615081804469586 -0.13023605811730915 -0.1950521687930494 -0.2330055753317746 0.19254186262669226 0.05216201266795888 -0.48271517650089124 -0.03722851101128445
süreksiz_ünsüz -0.07780677237019212 0.01160424558404181 0.018609042615572766 0.18128953375961288 0.13035379939208108 0.021357119873510282 0.08061500295511394 0.058604069305994974 0.022845893367693902 -0.04591870017524718 -0.063283910935849 0.09736374930284236 -0.10237165980045043 -0.1524305926115459 0.1275752379200698 -0.09587775015485944
s -0.08770327726034878 -0.02727773662439985 0.1526656405608996 0.1922959256735885 0.135578777710348 0.1731336385236033 -0.217524178953896 0.41043072626593263 -0.0951463826403441 0.11019661847701463 -0.1939396777910805 -0.3559378626757066 0.14413888765849184 -0.1446915220942046 0.2949122746702352 -0.32457177082724964
ünlü -0.1492684568997824 -0.19026240161077784 -0.10740742608649727 -0.25723035288397234 -0.03723119030248959 0.029484814088562766 0.0313852427317225 -0.21891293196012024 0.11753373644741447 -0.025769943834478122 0.07349285006101111 -0.030070074924168952 -0.16093797098707938 0.04570745962860058 -0.23862340210389765 0.1027636210426771
lips 0.05240035387440548 0.05989690929785039 -0.1202199395473823 0.10326165125150115 -0.048186362743999546 -0.10474275521853116 0.10552533927618973 0.26459446291507915 -0.11679357795185305 0.022536029941903363 0.19147784970904308 -0.0728708565068192 0.11338048601209029 0.1768183174032344 0.21199857043145642 -0.08784148846765445
a -0.13116388955580646 -0.21692529754507628 -0.1906040029915082 -0.4864590119916395 -0.24859274915089002 -0.028693310870192997 -0.052246796535877604 -0.2726186818086431 0.3055538566444377 -0.0912209136067216 0.1510719750396859 -0.038740680057265005 -0.15576187201986552 0.23000159034574402 -0.3499868352971409 -0.047274004282992894
b 0.05772651788693746 0.22800215637370408 -0.26573374120374404 0.20335954239521759 -0.10935174903936111 -0.0905138645959599 0.2694146920066525 0.3843437891703621 -0.11917529821680768 -0.2109006241847073 0.16595256151484478 -0.0633089220717616 0.19088514236859708 0.23381500193049762 0.40680366371367443 -0.04269118448457607
c -0.2535525477026884 0.11692876818829143 0.1729641350167563 0.11990069114816376 0.30426826826494136 -0.048742572962253754 -0.1255366091847078 -0.12757911326975518 -0.03019608382383261 -0.05768760439033127 -0.2718701440360469 0.25613422851176143 -0.06126652629484839 -0.36198085614816655 0.4735626570127451 -0.15457862502657485
ç -0.2033474537751202 -0.13625278727159296 0.21857980995735496 0.20147300721879313 0.11746472017072208 -0.008795621133441818 0.11916281835418213 0.2681965963348667 0.05157619617252422 0.15060109069623423 -0.15411068883548498 -0.21293131123356582 -0.13350577451486847 -0.4908754229175181 0.2771003704033642 -0.2621318703127352
d -0.3629652770857033 0.2511984062641401 0.014950165284329967 0.3944264871735513 0.2121768080532866 -0.20746969574171784 0.10353500354992592 0.10510352473667893 0.038976380069039605 0.18250709528515735 -0.02490313510498917 0.19637640943023701 -0.23182055873633653 -0.33671902706087686 0.15406274505436043 -0.2752599451053826
e -0.309164288148903 -0.2369612456530291 -0.122177377616758 -0.5029894693690241 -0.1525522916749125 -0.12093200620972426 0.05488589066096203 -0.23284520859696176 0.1659453468541038 -0.010119746496511255 0.05572445336145238 -0.23004278663311656 -0.27975305664465605 0.19964841836430683 -0.23011371957831994 0.22097678380428867
f 0.0701147121700968 0.006782811796052255 -0.16791788498663726 0.2133168474763347 -0.056569899176510806 -0.13018844502759744 0.10838224474966669 0.4966606797637505 -0.23570989092017294 0.11740496127532922 0.32653432650443476 -0.2529933917341151 0.20376715993528868 0.23064244329449388 0.20108588686098322 -0.2488516220572997
g 0.22474919313222064 0.04045921670055133 0.1728241064827041 0.2558098042487577 0.2300270132025833 -0.204886584657423 -0.0019914376020607736 -0.08989923861761401 0.13501747988899915 -0.31130423344274644 -0.016868630238422878 0.5493744803768539 -0.16850618678537144 -0.08957160360463845 0.2398007157883218 0.13213544295828947
ğ 0.4717033332895669 0.2868759362849886 0.15110774116920525 0.21759620193591842 0.0356044658769425 -0.22864016565233572 -0.26861752648095166 -0.07463813392045397 0.03726002889200769 -0.26623069812205535 0.030693561343223694 0.4157944759225409 -0.05707898233359929 -0.12440519116359092 0.11068599604101154 -0.006848512746062051
h 0.28159267468317506 0.16738882644640016 0.15493275211318533 0.07545316950842094 0.18530212332966356 0.12904105701178362 -0.14617899907583368 0.1738953664675413 0.016834014735945004 -0.10047275575724571 0.31809692364017705 -0.47241991955190016 -0.04611314426389013 -0.04839917217135834 0.24801459774154547 -0.30319134746311865
i -0.2641392905435607 -0.23352663398014006 -0.1452972389561629 -0.2971438536604609 -0.09489548866249532 0.07085545512959326 0.012840379387967529 -0.27064745750053587 0.19187338197412993 0.22766880415836968 0.08738288525606416 -0.2151844799892279 -0.24754705003649866 0.006154809799307546 -0.4577723654008474 0.193146656983877
ı -0.2255172104252423 -0.26657874928582403 -0.1413124968987106 -0.3991072583870216 -0.25580376876211713 0.06891673505092538 -0.15713072708336767 -0.17525030918380108 0.11371886260656972 0.08346833062795009 0.11137164588412397 -0.1571841196956437 -0.351090295460401 0.05212596422493205 -0.4710340697363182 0.053725516361368575
j 0.11979780492917887 0.22907958785057075 0.3714140142894262 -0.2049310348930303 0.027904096451367023 -0.22642096909855566 -0.21882648513593336 0.2249483808003466 -0.27608200063679744 0.32482151801727477 -0.18218997176555415 0.2134972184682687 0.06053161099681356 0.004882119546966065 0.28208900007617843 0.0037367787795163933
k 0.09487042853468768 -0.0022280815788261223 0.20222851118961035 0.3468711616071916 0.2788608822332728 0.1378918363394827 0.07159370239250085 0.18564691150527532 0.14261504283036808 -0.39887289150778715 -0.0164242526263335 0.2743027102906655 -0.19563922065558895 -0.2658830818312046 0.03522339505427343 -0.2630445167710648
l 0.15459188531432097 0.2883042324213324 -0.001901367574667831 -0.09217940146116804 0.025704207922768355 -0.19700685355362926 -0.16793116077937736 -0.01680086783242224 0.030533531414664833 0.256635018058043 -0.12302522214838829 0.5037433940522212 0.31031529371090166 -0.11222916438392015 0.3447781792946507 -0.045151678213967074
m 0.02196320632576234 0.1966361037660148 -0.09812332681727111 0.0008505901106010763 -0.2534996358769939 -0.3401277362499717 -0.27294963707935427 0.31985438333855815 -0.2582748504065672 -0.005737196763672472 0.323910256977449 0.07110005165518937 0.26570909354326955 0.20663043026022032 0.23730192655370405 0.03313373513460537
n 0.14282053014082668 0.3831776070442507 0.2670786289269972 0.2457044301169247 -0.08224642510177908 -0.19702344709652136 -0.39616300417441663 0.057981360478155504 -0.07102475534449769 0.06209550746497478 -0.328216697754512 0.024158629923233713 0.19893171802773973 -0.11077270953649483 0.2786577382889507 -0.026285548989124732
o -0.1445362864324379 -0.23097740286896878 -0.21353423773969596 -0.5017970009771658 -0.03566418565246261 -0.003935859372168157 0.09848317809846371 -0.39098950567290486 0.16628168364533302 -0.17025822418965936 0.1812818368163746 0.1467990738064607 -0.15301706848223096 0.1718386516857191 -0.3012878172399583 0.09327680393022149
ö -0.2551797895582856 -0.3144812028884708 -0.1466663462414346 -0.42048252830938 0.05063087746562817 -0.0015168729818793444 0.2406831991954146 -0.41903821831071886 0.12546497325147452 -0.16491650565324928 0.15167212378954914 0.10966126027869218 -0.22560119243263912 -0.0500306392856576 -0.21619886118926981 0.235728611747251
p -0.1752378174179524 -0.13088593002499183 -0.1864613854510873 0.28928442599692566 0.13203574784057562 0.12697214619376274 0.23970642947325638 0.5380464056826578 -0.10427659173736119 0.16726025953274867 0.010270250636368416 -0.07360865444956392 -0.10693969203718363 0.12833267914764845 0.2858871271433824 -0.1814214055287176
r -0.2049272892514973 0.2445778340835636 0.38478420613762165 0.055416065767496525 0.11195655363710381 -0.1367878862444122 -0.23401957322360994 -0.0070433336588352855 -0.07720970014718977 0.07201948084716653 -0.3023583505851466 0.14754816677075713 0.3425675130323586 0.059087321129972004 0.37218761512368376 -0.0762831867099185
ş -0.09708198616028049 -0.1150016115953885 0.1685603485565702 0.09261761662619127 -0.2504927398976438 0.10888244877008303 -0.2288078937098652 0.2555487931406345 0.0038191235277864515 0.3193535980504346 -0.19647024425125428 -0.1868113373002241 0.300891378480158 -0.18994834880772762 0.3131230894901712 -0.21702496255871442
t -0.2732840506652095 -0.01934489121056138 -0.050354737477598194 0.31964962944211633 0.1657212014690484 0.29217568522256243 0.05317657697234704 0.0696499769574668 -0.06825701573142666 0.19146159771932805 -0.34964701615615906 -0.04235818462588546 -0.127600136187527 -0.36972623859319287 0.2519527793412289 -0.277125640637907
u -0.15774418443990648 -0.4230267535411353 -0.1281752314094828 -0.25756247584444775 0.09996439083439551 0.10122084917752315 -0.0065313670834447135 -0.2977370489672924 0.14254935773616587 -0.16586433425653285 0.1870235195304671 0.14820134252659922 -0.3110460012595664 0.12651958060276755 -0.4530358099731716 0.11145912177488994
ü -0.30658081784802116 -0.3552409300308865 -0.15397331900461503 -0.241702849268295 0.09437901642909362 0.14261106886689737 0.027210251316652317 -0.41192509392898763 0.2187217986520842 0.01943615608733701 0.006848449349522765 -0.10573426408880872 -0.289550454827026 -0.151679540231415 -0.3358394836320229 0.24517223507912228
v 0.20407836998591475 0.11852965401709047 -0.013089505970311817 0.003542779898571439 -0.04072264262060859 -0.3869073250064157 0.1780318628492698 0.14627676600656486 -0.11360079407024912 0.2160362554365868 0.3289827098079857 0.01564212975171002 0.1889692390913187 0.2800904592969271 0.4397523420626933 -0.15703148587678523
y 0.4081140773624572 0.29268538386265786 0.21384816073579008 0.15745121302668855 -0.15793681613096286 -0.33232092916324124 -0.13159998127129283 0.20890504644857033 -0.10674325423585819 -0.21216557428846367 0.02076082018397689 0.230275685596222 -0.2113253492294089 -0.2237113028932118 -0.05797177766279686 0.1344425606484843
z -0.04177996077153613 0.10885714780991129 0.13615751151457353 -0.2622950188843319 0.1091508703572862 -0.35495921037606937 -0.27688183408807565 0.0940283580189654 -0.09251031339952132 0.09500587036216222 -0.05193797984288166 0.0646113621832003 0.11912357096580593 -0.22203449198633632 0.5488206417769753 0.10376850096125073
kalın_ünlü -0.11543819015729717 -0.21019219330580247 -0.13809929650337724 -0.32919089245310706 -0.09170547946833216 0.02619973109123452 -0.01690631718608979 -0.22772931104649494 0.14618443942419146 -0.07832087807037147 0.12498751696352171 0.028653347507943412 -0.17115096270434724 0.12773097135048891 -0.30397103932915426 0.03172953769137651
ince_ünlü -0.2278083636868992 -0.2189110706445083 -0.1115946980693246 -0.2716819907114442 -0.014875774277997123 0.028428271588278754 0.07203095835178676 -0.2648567304558986 0.13842012071931198 0.03813111348865317 0.04952820916757339 -0.10955439812211916 -0.1991787704191379 -0.009627775801941286 -0.25142772464983726 0.19018083351170695
düz_ünlü -0.18143996131674264 -0.18362696796502145 -0.12225719386485813 -0.3460281562027692 -0.15878222897851094 -0.0073779551942647105 -0.021219434728830144 -0.19075066438467153 0.15860911610307685 0.03896723597210858 0.0819453176113681 -0.13188359754227924 -0.1962079850702977 0.11266339979065788 -0.30013683845629185 0.08297561613849404
yuvarlak_ünlü -0.16975945148099336 -0.26718086886151615 -0.12811306397419955 -0.28578899051503376 0.04918696582620264 0.04893333649341372 0.09131593958131404 -0.31037014505056965 0.12241801350658 -0.10969519469155471 0.11149830871239975 0.07410815765613883 -0.18986479394630076 0.015962743476670815 -0.25665121775954736 0.14282316056521344
dar_ünlü -0.1877879988569206 -0.24018666124135876 -0.11330623328586162 -0.2286630501217201 -0.041592937338339055 0.08337791016771459 -0.02338534264122291 -0.22393440746729534 0.12877275944878108 0.05944019447678001 0.07345144281690069 -0.08622752820254241 -0.22994845811903844 -0.00040257132133941905 -0.3506379107552608 0.12335798439039085
geniş_ünlü -0.15690138654573216 -0.18519048077401926 -0.14084910980775703 -0.3990828820027193 -0.08753671031404997 -0.03792790946089294 0.07747806840851441 -0.2680324483561656 0.155892543038514 -0.09809255199474666 0.10940968981213309 0.00016467329487432006 -0.1439309230258394 0.13349480398078403 -0.2138643591937291 0.09533574071052296
palate 0.27808908834205975 0.12870327390366407 0.1340195703435708 0.1896038219894908 0.06971888954444322 -0.12056508659235422 -0.07354271907476141 0.0169500266772517 0.04673317612019471 -0.24952042910596314 0.026543965991489813 0.28281512889474153 -0.11993422057107972 -0.11659606164673786 0.04702548612544784 0.013548114924765906
ünsüz 0.024447570838733536 0.043482308915261315 0.04135403543293887 0.06341910828605461 0.016915190586120364 -0.008814705307624994 -0.030232228847133818 0.08260128615942317 -0.03398302800984896 0.022487054763806254 -0.03294996847672989 -0.0025983292514220016 0.03659060723345305 -0.03135652705060341 0.09468073787035801 -0.04481887468118029
voice 0.13384303790161806 0.07964767050580954 0.03276163127243134 0.07349286257662258 0.039151716993579874 0.00015575240256547563 -0.01631049087367728 0.08439794982625103 -0.013322046246950697 -0.05823128368579858 0.11075692617433636 -0.07419898503760065 0.015495075398347082 0.01213813586198827 0.09710413522695328 -0.07698681397877727
A -0.12548550641569206 -0.22522213707909688 -0.2092649929598831 -0.5236423620860585 -0.28396001874234494 -0.034426651298628715 -0.07021780070168797 -0.29153034894819996 0.3557052295422931 -0.10590193301336295 0.1643136490152342 -0.037059320223813884 -0.1496147184959995 0.25800615236870417 -0.37140137239228715 -0.08136142117228498
B 0.06684274460673194 0.2554576427636327 -0.29556058234998367 0.22109923780516907 -0.12713435749324598 -0.09402290094178076 0.2971359211326272 0.42784175608025377 -0.130033090020753 -0.23953198101266857 0.17822099229178767 -0.07927496618624806 0.2177667645006746 0.25951089664940735 0.45259249034837473 -0.04548746523083443
C -0.2778703165648893 0.12632119390500135 0.19041677927456496 0.1266462888416416 0.3347288345866916 -0.05291448564996232 -0.14150871430004272 -0.14420043084494294 -0.03237968998664328 -0.06494661369953889 -0.296464522155455 0.2802303685272196 -0.06851866197865063 -0.39650144045154845 0.5179460335756932 -0.16949771562183105
Ç -0.23087183947221354 -0.15402478329842872 0.24887965926693476 0.2207151263813645 0.1274920580678836 -0.01792341734554805 0.13136076712756195 0.29694881984965504 0.05876271015431826 0.17449032015245816 -0.17303130840410677 -0.24165205610499854 -0.15495557985606037 -0.560869980749868 0.31172857476439786 -0.29389330368552596
D -0.395194791757773 0.2671994670239224 0.0115016097161154 0.42654494799942194 0.22848949827107995 -0.22299330985819474 0.1132953972668754 0.11569748449323924 0.04424466549405198 0.19905974924056538 -0.017803695226971204 0.20385745239385358 -0.25763880250847954 -0.3640933496316364 0.15820872437396225 -0.30284344115760514
E -0.33542989039124826 -0.25311923459892577 -0.12510435357766403 -0.540028087018777 -0.1636918251730297 -0.13989697086887143 0.05560008344097504 -0.23779169321271326 0.1723893803008525 -0.012954018374246269 0.05464753018130885 -0.2560016647200637 -0.30509689624493114 0.22463830079236846 -0.23537663765160424 0.24081357275076382
F 0.07319471346952625 0.004893675730050303 -0.18115543279375904 0.22873499249540483 -0.058419608950118974 -0.14148489635070124 0.11819942390516577 0.5296464255052041 -0.25226843217977984 0.12649142321117948 0.3514108478588428 -0.2699140063053799 0.2151081389833727 0.2458622356468289 0.2093639238143992 -0.2674318690129873
G 0.23779379131237116 0.032024487501944 0.1890131890622255 0.26859568026550973 0.2568369099346506 -0.22593607023174325 -0.005377917224645109 -0.11085189012157133 0.15390005758424521 -0.3351768425323452 -0.020327597640107886 0.6076393771587218 -0.17831651788385794 -0.0889777436274355 0.2708072206525459 0.1522540011745426
Ğ 0.5160203350264472 0.3157866914404488 0.16133967068487973 0.23793331240351448 0.035604776779973965 -0.25332966139943885 -0.29939954044788736 -0.08850084427457132 0.04176132912664117 -0.2865466838345424 0.02885878468107206 0.45898540668445414 -0.0645398809484725 -0.13956872162841952 0.12114560241029598 -0.005802092957052233
H 0.31164636515036986 0.19344856693466564 0.1771822541123951 0.07732188808687909 0.2157081078460233 0.14191909188193022 -0.16845383928584903 0.1933782334037487 0.022399847444590292 -0.11354506851156865 0.36644693301049025 -0.5409303563300927 -0.059014755537372905 -0.057235559070343854 0.28837679192483723 -0.3482284130981356
İ -0.28893486941310986 -0.24629352973248042 -0.15986166053399245 -0.3152471597538198 -0.10472449167570252 0.08262686500173944 0.015148275642481963 -0.29341163607159176 0.21203072310011875 0.2797889651640533 0.0975512006824222 -0.2449532671946617 -0.2651999746998681 0.0003406359295450904 -0.5144296840606586 0.21253479219497445
I -0.24195496068729583 -0.2783985422767244 -0.1462095488220383 -0.4249284616657453 -0.2858822317146777 0.0734021940801347 -0.17765554883942553 -0.1730147459800739 0.10849705633915252 0.09734803356587479 0.11573254960976141 -0.17510648842305696 -0.38149785106960643 0.045021514346421626 -0.49858660136506344 0.05307033482481656
J 0.13363819880190844 0.25442898654477614 0.41656618533351786 -0.23540221816154036 0.03407759134890994 -0.25614241777514624 -0.24454796267305454 0.2547014325749719 -0.3093666948949672 0.36250069575259397 -0.20185339491381438 0.24278641229704753 0.064483599602966 0.00861504604463521 0.31874189648344375 0.005983003546990896
K 0.09714296131010769 -0.004560828632702628 0.2281021593121782 0.373588609481591 0.312499500261689 0.15541711674448075 0.07866770134443088 0.20134420491615002 0.16225017770946223 -0.4453849261114343 -0.01645601648737742 0.30805337861830046 -0.21212426391754996 -0.29138199253135433 0.03428250137889904 -0.29513146713110144
L 0.17305173996455006 0.31840799136100617 -0.006861047601760621 -0.1078628355709095 0.031851397527842024 -0.21968692659869798 -0.18316108383142587 -0.02271651088783215 0.038477234644294374 0.2837969408817563 -0.13500411071941024 0.573380817075668 0.3423294697282636 -0.12396415668535359 0.3826930169174522 -0.04831677549206741
M 0.015705780497504457 0.2144330770615074 -0.10685307534726464 -0.007603721881499078 -0.2873454889531413 -0.3801400788904297 -0.31801513537139925 0.34971629108654656 -0.28591813484710066 -0.008018941038335347 0.3618527954564557 0.08193356289786502 0.29246683326597905 0.2228742404554951 0.25644357101836424 0.04018081477925944
N 0.1614210443377331 0.43147427300071184 0.30706689693246897 0.28247568516028665 -0.08930415876246593 -0.21840843464634002 -0.4475906428523627 0.06730138442156015 -0.07764433192644736 0.06220531768458619 -0.3733003168931821 0.028336098016643736 0.22179820173078912 -0.12292426672589261 0.31355374022918575 -0.03176763647490526
O -0.15065165755437712 -0.24047900429635863 -0.23783749894658462 -0.5551436925689808 -0.03323760189888919 -0.008475252611611568 0.1147067209006661 -0.4328936528996579 0.17714874040757306 -0.18943121344141728 0.2021343002601677 0.17697323321708508 -0.15539154335319483 0.19159578702208974 -0.320019687045114 0.09989481243162673
Ö -0.2691718525911809 -0.3344691593869743 -0.15261162690527752 -0.44488287792551023 0.060358025177606814 -0.002959017678192812 0.2674172529703789 -0.4472410675912214 0.12473820481452401 -0.18545727355674138 0.16666368485103963 0.1350279953830591 -0.2390047280189818 -0.06692512933787713 -0.21889343937671968 0.2504202015780046
P -0.20545278447050003 -0.15170865910200287 -0.21090549626957047 0.3203747257629347 0.15065083137017546 0.1428593125334844 0.2669704555482142 0.6114992252952637 -0.11805722506905975 0.20354990359866496 0.000872473229879057 -0.0746363506174559 -0.12747637846295276 0.14990938770941306 0.3227332473237664 -0.1971937937343153
R -0.23679212549774364 0.2757408962276527 0.43894409132533185 0.06858312987503246 0.13182362962619723 -0.15061337999835128 -0.2660145386132781 -0.006391431047838054 -0.08533220308777453 0.07724084616723585 -0.3493514943321384 0.16823121345733522 0.38388871578203565 0.06570607374903793 0.42497647864965843 -0.08988403877672159
S -0.10390266303783624 -0.02941473154793029 0.1726560815581856 0.21200788756824496 0.14401082813145924 0.18423981909141732 -0.24897153457282634 0.45789975497598834 -0.10347738389230375 0.12327340612040036 -0.21699947679431614 -0.3965793422139752 0.16440690440043482 -0.16233680122059307 0.3378530573293394 -0.3611541845361232
Ş -0.11533885135277519 -0.13471658455722763 0.188729956739407 0.10733728515210793 -0.2861607638356108 0.12427357183440098 -0.259282590591449 0.29356540423993965 0.0064183860115466455 0.35966068043038996 -0.22333416349539487 -0.2152338840291574 0.34060334049302454 -0.21334283753007244 0.35638844899434263 -0.24754583185540832
T -0.30942104558279454 -0.02105426009479297 -0.059775802696784563 0.3530244343887717 0.18208260346812305 0.3220641226149288 0.06046732076120502 0.0683497162477553 -0.07613033162995883 0.2179264588373747 -0.3908853583561991 -0.044045875437821486 -0.14910729055758623 -0.41769187181333656 0.27802941997003167 -0.30647615988531074
U -0.16327906878339538 -0.4577082691593427 -0.13040295119716655 -0.2615502979960968 0.11959107112728988 0.10680594860376263 -0.00752051339599189 -0.30938414145612547 0.14763193836953137 -0.18657314328662516 0.2019203251206235 0.16837384558746352 -0.3343768626900867 0.14217235924196878 -0.4805785037019371 0.11778679523550398
Ü -0.3265866358935175 -0.37457903815899424 -0.16076854800984589 -0.24021571406290484 0.10850255977612881 0.15712729697450875 0.022009956242288135 -0.43743103873086503 0.23720581338828664 0.02339182841440602 -0.006222784081229383 -0.11828655703611628 -0.30444957044786214 -0.17803603349719963 -0.34388724665313225 0.2588991901743621
V 0.22497110979803217 0.12236935316760765 -0.00943309630470922 -0.004357817387884571 -0.04046945895430412 -0.4335752354954147 0.20461365568146878 0.1491217501773128 -0.11840536526182278 0.24957787083406846 0.3691963044577756 0.017063040901304685 0.20415941195201148 0.30714551882416746 0.4912435361332658 -0.18127199088460152
Y 0.45236653120758086 0.32693148436591346 0.23427748393547418 0.17099646771597532 -0.19076006730658046 -0.3732380475923871 -0.14643500953816888 0.24191542178600134 -0.12585220845518885 -0.22824722425095983 0.022129901466511784 0.24169575664457446 -0.2446148415604079 -0.2564177230364079 -0.07727910742589311 0.15235157420437054
Z -0.052639517801658174 0.116427999991057 0.15330569405294261 -0.31086162887731045 0.1286546677776982 -0.4052954784523757 -0.3123318964033336 0.1072919102783118 -0.10408047207965349 0.10838498571643754 -0.05582285517531543 0.07588886068180503 0.12893591656877398 -0.2525076609730299 0.6278976987458647 0.12047765359531383
case -0.018453069339648683 -0.018851415455810525 -0.0032536432099631966 -0.03908253346054965 -0.002756583370535603 -0.021205342247267427 -0.01812688356151809 -0.009541410831335919 0.008371467445680276 0.00428678036111011 0.032893964571346065 -0.00032307570311047255 -0.0078084242148839375 -0.008152862403120135 0.015265078007421537 0.001588987801325833
throat 0.27736472793177036 0.1658461530983859 0.15505557481074056 0.07471182127031668 0.18562487940649935 0.12920829294288 -0.14645671505820032 0.17477359215984917 0.016844376743171855 -0.09831762946535975 0.3156760552723796 -0.4730177672857108 -0.04649086216747947 -0.05001227322164572 0.249082598291029 -0.30421758220214284
; 0.38697305619963274 -0.25001574728239 -0.16784180173168659 0.24255386435887755 -0.16864040190720397 0.2075235256368622 0.22848199429296007 -0.09464657917844832 -0.1096307066943141 0.02004171716992644 -0.04650947038315587 0.002809659891032256 0.258827517475818 0.3267052839108074 -0.42289116570995705 0.3997305484853756
0 0.03134295850617949 0.396531380474183 -0.00030968046840432553 -0.09424025646315418 0.00876513641845256 0.4659788127127655 0.22384492056930008 -0.2508849975167703 -0.03356123931008599 -0.1338712797221883 -0.19687437172719788 -0.23570906800236344 0.18997898111552922 0.05134357539439335 -0.48763377349448667 -0.03611235316731473
1 0.03830827969545928 0.4072549328540053 -0.00221842239159571 -0.08838181157267352 0.007557036067108893 0.47667576050663885 0.23781861329398915 -0.2522962209550101 -0.041804291457407806 -0.13224155754195488 -0.20126134751790384 -0.23777523715719734 0.20097605329180712 0.05354100034544932 -0.49145300776628353 -0.041099054697056554
2 0.033469803466413255 0.39411275218416525 -0.000900564854487942 -0.09107047586962631 0.007887685613682105 0.46212975059302525 0.22454592750878255 -0.24767518671011496 -0.035684053840403684 -0.13202725581080607 -0.1957879255675626 -0.23339447189824855 0.19064207053127508 0.05135222836395029 -0.4826049469724793 -0.03646806687825641
3 0.03414768671510044 0.39814223527531556 -0.0016648753607181625 -0.09334338120846761 0.0070083562788846475 0.46652758788381904 0.22437111909687885 -0.25188022758076317 -0.034555047968274924 -0.13446244684319097 -0.1982805736588446 -0.23652844890380348 0.1919258641725188 0.0520153866223922 -0.49073543505526246 -0.03430024948351183
4 0.038070960328638104 0.3963905872986783 -0.00538866932729115 -0.08888810231711874 0.005210530431331115 0.4629590674604005 0.22831139697374062 -0.24988560316437977 -0.03856701734729946 -0.12772212635785202 -0.19477568137108278 -0.2318207439233315 0.19641475258217347 0.05356205583106785 -0.48255019485165784 -0.036033490718941213
5 0.03163437159570451 0.3944877380570789 -0.0009580978496213234 -0.09191512313674631 0.009226739721700591 0.4635252095383658 0.22654002046113125 -0.24840986952603367 -0.03575433549884438 -0.1300030458226748 -0.1941860591147099 -0.23262409952898017 0.19129228477092022 0.05170456065324569 -0.4803752629746831 -0.03897456923450876
6 0.03036212007152314 0.3985597213741836 -0.00023064253906131035 -0.09873209689556199 0.007875678240229162 0.46822775160014507 0.21952821051222532 -0.25537660448831173 -0.029966991681460494 -0.1384260915621667 -0.19942338864630738 -0.2399025479229602 0.18823200875449292 0.05145758793973685 -0.49771840249713584 -0.03164108294749809
7 0.037506149409081514 0.40385523737825085 -0.004812111085175107 -0.09153989108694521 0.005962130836321329 0.47254785385927955 0.23128882135017337 -0.25507335545318455 -0.03788993525729725 -0.1310635643636779 -0.1987643563702363 -0.236489673893781 0.19858334799460262 0.05392290779391917 -0.49264901226241253 -0.036473727918751385
8 0.03689175907835976 0.39774016357851716 -0.0030432991210791066 -0.08999488187576708 0.006052292351024793 0.4650406586359398 0.2271972601813389 -0.24992658008464674 -0.037461221720807 -0.13171203808068885 -0.1973907269655084 -0.23445399346310425 0.1945136721684924 0.052571273753177744 -0.4866390570446443 -0.0354935720280815
9 0.029875807691121335 0.39952839706079174 -0.002903142776778104 -0.09692774372798213 0.009426129862483307 0.4705230922434509 0.22750428157330624 -0.2559521125915277 -0.03327941679891258 -0.12991668911720222 -0.19460437124786295 -0.23513962254283788 0.19337618667108714 0.05321153387251331 -0.48842560807191127 -0.0383947352809454
. 0.3709558830220645 -0.2345651671836674 -0.16125921713286687 0.2341733429466778 -0.1602419555879906 0.19068018253450028 0.21556245581199765 -0.09339223299919786 -0.10312584068861223 0.020694370340278743 -0.04339625671258164 0.012084961029512745 0.250393904044414 0.30774421495371995 -0.38768543735819694 0.38301660787189085
, 0.37123928792754957 -0.25562682858120395 -0.16624355132534216 0.24874689866580416 -0.15924600606644396 0.18502126995321957 0.21023530584537517 -0.101484640435857 -0.08838138597910584 0.017199128998788976 -0.03233620100900627 0.030937415110695227 0.2439386216650378 0.3085835125290797 -0.39759412651841025 0.3960258639606082
: 0.37464366378714214 -0.23685660443481937 -0.16105307476452593 0.24238583802108135 -0.15941362188477584 0.1898040269799155 0.21681226644894805 -0.09395014711394223 -0.0988539985477174 0.025782462910138193 -0.04148566662963621 0.01768897242318692 0.2521361336447127 0.3063720572831223 -0.39126072011736646 0.38694781129289263
... 0.3719499119074794 -0.2354343617124594 -0.16100455825218338 0.23745857333437326 -0.15957079804866453 0.1908842647492613 0.21630672034647586 -0.09284689380009149 -0.10104451065125783 0.02327877686402145 -0.042740874902562564 0.01402650010028331 0.2505869137097392 0.3067822243426881 -0.38973728611532976 0.38339814760851426
? 0.3796644010426629 -0.2741261213923198 -0.18845738186263328 0.22186476577939182 -0.1718362191073393 0.19361448159168668 0.21497546399989564 -0.11852406688759912 -0.10387490371531337 -0.014738312947847006 -0.04211274842604328 0.033367541798100454 0.2517164833408114 0.3373821063334442 -0.38077498524493025 0.40130580529078536
! 0.36967946806118246 -0.23672450153179683 -0.16617302224858044 0.23167462180623677 -0.16378357012167427 0.19735641306835783 0.21974826426005314 -0.08973069391572891 -0.10692439272835817 0.021072886361947738 -0.04599975390368537 0.0063344832445146396 0.2509981460382927 0.31316795255729957 -0.39259756649512095 0.3791827266030012
" 0.3731160595380232 -0.23325883887403664 -0.1574123064368728 0.24070789058249792 -0.15743307201368723 0.18540386970527842 0.21266178357064305 -0.09429870795329308 -0.09919891564617968 0.022915607336940987 -0.04011470985627524 0.01727855077713049 0.24986314670530096 0.3024540974716452 -0.3868302760651363 0.3871063943053211
' 0.3744611361746545 -0.23257958424748176 -0.1547513124245522 0.22739194479984073 -0.15948478093218005 0.18751799283154738 0.21020082829374792 -0.09817351283720925 -0.1098566833336303 0.007120668879671172 -0.042745656586721116 0.004148806082745692 0.248585371730639 0.30899623841590934 -0.3904050927882746 0.3920288198251183
( 0.38092914077962314 -0.22760940744591585 -0.1518344711122249 0.2500068141800698 -0.15727757712016532 0.18301377007481195 0.21372101331010918 -0.09468725009294643 -0.10018814230798727 0.029386108764162134 -0.03863598726714208 0.015507406302813422 0.25524803991623085 0.3002337785445348 -0.3938845507731121 0.3973097901960441
) 0.38625471478825507 -0.24073602533104368 -0.17437115941966225 0.24383808205194463 -0.16532679365608713 0.2003619618118022 0.2301109254048079 -0.09278971813626792 -0.10461651357404408 0.03063705176273628 -0.050016257819346634 0.023036681855765524 0.26467137110860417 0.31658330099476945 -0.3849317549201664 0.38433248690044636
- 0.37838528588019976 -0.2404426200330232 -0.1659864963391099 0.24801335081260795 -0.1610497467480641 0.18293127549292362 0.2157146420555001 -0.09962170727218946 -0.09494576513088542 0.027052716245122222 -0.03988521188178499 0.03189372589438131 0.2572868053407513 0.3079228087588226 -0.3779508975410145 0.3923206416586742
/ 0.36894606281653386 -0.23949390792876493 -0.16345155246101956 0.2302673025818341 -0.16121982738956442 0.19440488188450894 0.21622163376258866 -0.09362486435090324 -0.1035063053960733 0.016510468720877778 -0.04393988761066435 0.00952023849301699 0.24781583766509666 0.3116047954034439 -0.392645514768535 0.3812167538640617
\ 0.3674498684287726 -0.2338930449722685 -0.15683188862261868 0.23255357937294135 -0.1566791270177545 0.19036510343139162 0.21363548831988025 -0.0927180287903179 -0.09911354128110968 0.020870193042620014 -0.04229565521942742 0.011095735330380909 0.24585406526022785 0.30401598765419735 -0.3911275500435822 0.37899054808636873
[ 0.37712009012393416 -0.229966786293176 -0.1674724556333784 0.23241949022846062 -0.1636245105567769 0.2002598709465016 0.2266112595092014 -0.09034799407788668 -0.1087489429483564 0.028512224980912035 -0.050939143082524695 0.009063680381577087 0.2597361672726426 0.3125136314494936 -0.385447291728289 0.37721977981459165
] 0.3843907692971691 -0.2274971939269845 -0.1600307548152348 0.24620777792896237 -0.16327489973010578 0.18615798443178092 0.21817422739665604 -0.09509111012590352 -0.10829550543060545 0.028037834294222918 -0.04425469147756162 0.01565593962731264 0.26320529730745096 0.3079853760286666 -0.38345532876515115 0.39728717796259666
